nep4 1 C 
cutoff 8 4 236 35
n_max 12 8
basis_size 16 12
l_max 4 2 1
ANN 100 0
  8.4448081e-01
 -1.0769573e-01
  1.5767696e-01
 -3.7129104e-01
 -3.3379656e-01
 -5.4912376e-01
 -9.0390813e-01
  5.1501852e-01
 -3.1389368e-01
  3.2644767e-01
 -1.1948852e-01
  1.7191184e-01
 -7.3313582e-01
  4.5766056e-02
  4.2684892e-01
  3.8607100e-01
  2.8979138e-01
  1.9301079e-02
 -4.8222074e-01
 -3.7001863e-03
 -2.8220576e-01
 -3.8582087e-02
  4.9416789e-01
  5.7707894e-01
  2.2013468e-01
 -3.7023681e-01
 -1.7355892e-01
 -9.1053657e-03
 -6.5617514e-01
 -4.6942547e-02
  1.0577052e-01
 -1.7286694e-01
  1.4742355e-01
  1.4014730e-01
 -5.1023997e-02
 -4.0066037e-01
 -2.1811889e-01
 -1.8135998e-01
  4.9537379e-01
  5.6802940e-01
 -1.0394532e-02
 -4.5691168e-01
 -1.9186585e-01
  3.2445872e-01
 -5.1292080e-01
  2.2086763e-01
 -7.6443940e-02
  7.0193306e-02
 -6.2149346e-02
  2.8960139e-02
 -2.8131090e-02
 -1.2074703e-01
  8.8892740e-01
 -1.0596040e-01
  9.9342465e-02
  5.4801202e-01
 -3.8952768e-01
 -9.9039477e-01
 -6.6495188e-02
  5.1189337e-02
 -1.5239859e-01
  2.2557922e-01
 -2.8316891e-01
  1.8057312e-01
  2.5700337e-01
  3.3000875e-01
  3.5355002e-01
 -7.8159958e-01
 -9.9044897e-02
  7.2672290e-01
 -6.5667921e-01
 -8.9280009e-01
  2.3205417e-01
 -2.8945286e+00
 -1.1052910e+00
 -7.2277081e-01
 -3.1209233e-01
 -1.1927763e-01
  2.8636658e-01
  9.8319441e-01
  4.6229202e-01
 -1.0420361e+00
 -2.0142962e-01
  1.5337132e-01
 -1.2564536e+00
 -4.3426937e-01
  2.4488638e-01
  3.1829202e-01
 -7.1394372e-01
  8.1463766e-01
  4.2523034e-02
  2.0017555e+00
  4.3852112e-01
 -1.0686084e+00
 -2.3833826e-01
 -4.4207585e-01
 -9.0937400e-01
 -1.6116230e-01
  2.8491920e-02
 -1.4098549e+00
 -9.0943199e-01
  6.5007269e-01
  3.2216337e+00
 -1.3497068e-01
  1.3223315e+00
 -6.9320315e-01
  8.7305856e-01
  2.0524733e-01
  1.0640321e+00
  3.7730567e+00
 -4.0978977e-01
 -9.7797111e-02
  2.1456187e+00
 -1.4098839e-01
 -3.0829850e-01
 -1.6692123e-01
  6.9031686e-01
  2.2115924e+00
 -1.2785197e+00
 -7.1229738e-01
  8.5052568e-01
 -2.0673767e-01
 -4.3101171e-01
 -1.3290450e-02
  4.8513624e-01
  2.1208730e-01
  2.8555536e-01
  2.8521886e-01
  1.2848189e-01
 -7.2823089e-01
  9.4604917e-02
 -5.6164414e-01
 -6.1813909e-01
  2.8958380e-02
  9.2541352e-02
  4.2253267e-02
  1.8433461e-01
  6.6658914e-01
  3.5011258e-02
  1.7953825e-01
  5.7256150e-01
  1.3751158e-01
 -3.3708539e-02
  2.5893664e-01
  3.2343185e-01
 -3.4545889e-01
  1.3002971e+00
  3.9263728e-01
 -6.8504214e-02
  1.1620706e-01
 -2.6830524e-01
  1.4090951e-01
  5.5362504e-02
  1.2416779e-01
  3.2431338e-02
  1.9200113e-01
  2.3994327e-01
 -2.3985383e-01
 -3.6563250e-01
  4.2259270e-01
 -4.0772176e-01
 -7.2080590e-02
  4.8235741e-01
  3.2638162e-01
  5.6284624e-01
 -1.5011283e+00
  1.1249803e-01
  9.0018652e-02
 -3.6215320e-01
  3.3474040e-01
  1.1093264e-01
 -4.4502673e-01
 -2.4881795e-01
  1.0134146e-01
 -1.2644829e-01
 -8.4885523e-02
  2.5955003e-01
 -7.2151530e-01
 -1.0710064e-01
  2.2277160e-01
 -6.3387975e-03
 -1.8307053e-02
 -5.0051320e-01
  2.5464809e-01
  8.0466306e-01
 -3.9471695e-01
 -2.7684361e-01
  4.8549116e-02
  2.3341866e-01
  6.9620603e-01
 -1.2667514e-01
  1.5982969e-01
 -6.0352075e-01
  3.7524995e-01
 -3.4774978e-02
  2.9428214e-01
  8.4177458e-01
  3.4293637e-01
  2.1218848e-01
 -2.6089770e-01
  7.0055105e-02
 -4.4886473e-01
 -1.1227512e+00
 -1.5982934e+00
  7.1085018e-01
 -5.1752335e-01
  1.8953141e+00
 -7.5760367e-03
  3.3369750e-01
 -9.4479859e-01
  2.0540999e-01
  2.2317352e+00
 -2.6889938e-01
 -1.0255634e+00
 -4.3009877e-01
  7.8432530e-01
  4.3013027e-01
  2.5944498e+00
 -2.3633475e+00
 -2.8513741e-01
 -1.8474562e+00
  8.8482928e-01
  5.9321201e-01
  8.0069304e-01
 -2.2011662e+00
  2.9639833e+00
  1.1955844e+00
 -1.1419914e+00
 -1.9891118e+00
 -2.8906167e-01
  5.8778358e-01
  1.1440274e+00
 -1.9698918e+00
 -2.3108892e+00
  1.3982038e+00
 -1.5809817e+00
  1.4347619e+00
 -2.2549060e-01
 -3.0352552e+00
 -1.6780645e+00
  7.2872895e-01
 -2.8118441e+00
  1.0980086e+00
  8.4928387e-01
 -5.3254789e-01
  8.0327600e-01
 -3.9950109e-01
  1.1835930e-01
  4.3822950e-01
 -1.8729786e+00
  1.0905094e+00
 -2.3738964e+00
 -2.6071982e+00
 -1.5938710e+00
 -1.8036231e-01
  6.9699991e-01
 -8.7442845e-01
 -1.1819317e+00
  5.8311516e-01
  4.8402163e-01
 -1.0253666e-01
  9.5451075e-01
  3.4776673e-01
  4.0972400e-02
 -3.5011548e-01
 -6.9638324e-01
  1.2686587e-02
 -5.1771331e-01
  6.6413128e-01
 -1.3196777e-01
  1.6545826e+00
  3.0556455e-01
 -6.1200929e-01
 -2.6326504e-01
 -5.7140641e-02
  3.5403514e-01
 -2.2216871e-01
 -8.5228808e-02
  8.3995685e-03
  1.7174402e-01
 -7.4336463e-01
 -2.4709454e-01
 -5.7028407e-01
  5.8013165e-01
 -2.8185233e-01
  2.8626040e-01
  2.2977211e-01
  3.8233438e-01
 -5.7316214e-01
 -6.5911579e-01
 -8.6762056e-02
  5.6110823e-01
  5.6174910e-01
 -1.0014414e+00
  2.1225495e+00
  6.9496911e-03
 -2.5229320e-01
  4.1929409e-01
  6.9866019e-01
 -3.3333495e-02
  3.5098922e-02
 -1.1176411e+00
  2.9939246e-01
  3.5874307e-01
  8.7461382e-02
 -4.3093437e-01
  1.0639592e-01
  5.7398075e-01
  2.7981153e-01
  3.6762220e-01
  2.9743823e-01
 -1.1245205e-01
 -2.8273427e-01
 -2.6517811e-01
  2.0222253e-01
  4.0858477e-02
  4.9623233e-01
  4.3406343e-01
 -2.1989864e-01
 -1.4879403e-01
 -4.3403032e-01
  1.0678837e-01
 -2.3236689e-01
 -1.0522070e-01
 -2.7055570e-01
 -5.9983265e-02
 -7.7699316e-01
  7.9490894e-01
 -2.0285758e-01
 -4.8746396e-02
 -2.4254993e-01
 -9.5424399e-02
  1.1000801e-01
  9.6959323e-02
 -2.3705345e-01
  7.5988740e-01
  1.4335167e-01
  4.1990194e-01
  5.3433025e-01
  1.9256818e-01
  9.9176228e-01
  9.0308213e-01
 -1.0531346e+00
 -2.3013858e-02
  1.4727397e+00
 -6.1882055e-01
 -8.5317844e-01
 -5.9511745e-01
  8.9114851e-01
 -1.1994605e+00
  1.4259878e+00
  2.8960958e-01
  5.2424300e-01
  1.1115259e-01
 -1.1269369e+00
 -4.0417382e-01
  6.4269084e-01
  4.2108914e-01
 -4.3192345e-01
  1.2942481e+00
  1.7331168e-01
 -1.0913895e+00
 -9.0274101e-01
 -2.7263963e+00
  5.9349397e-03
  4.8695171e-01
  9.7407597e-01
 -3.0948919e-01
  5.6283718e-01
 -1.4808999e+00
  1.1882136e+00
 -3.0166134e-01
 -4.3707499e-01
 -7.2073579e-02
 -7.8344327e-01
  1.1349063e+00
 -8.5271382e-01
 -8.1551503e-03
 -4.2350316e-01
  6.7235768e-01
 -3.7446153e-01
  5.0756562e-01
  7.7954978e-02
  3.2279775e-02
  6.2406951e-01
 -1.3395785e+00
  1.3328962e-01
 -6.5366261e-02
  2.7980608e-01
  1.4374939e+00
 -8.9419734e-01
  2.6874216e-02
  2.7973229e-01
  1.1703969e+00
 -6.9695368e-02
 -5.0826021e-02
 -5.4979140e-01
  1.6615435e-01
  1.8195738e-01
  5.8927327e-01
 -7.1207024e-02
  2.7459300e-01
 -3.2495356e-01
  1.4827472e+00
  1.3947144e-01
 -1.1210874e+00
 -4.8999843e-01
  1.0054595e+00
 -1.0521274e+00
 -2.7753162e-01
 -1.0065405e+00
  1.3702270e-01
  9.5196921e-01
  1.1849827e+00
  1.0504199e-02
 -1.5845178e+00
 -2.1366222e+00
  2.9513387e-02
 -2.4357045e+00
  6.5843451e-01
  7.7204877e-01
 -1.0446347e+00
 -1.0687997e+00
 -4.7577539e-01
  5.8616263e-01
 -4.1113472e-01
  7.0179677e-01
  8.1471568e-01
  1.1750014e-02
 -6.1289150e-01
  4.0682375e-01
  3.9889455e-01
  7.0055407e-01
 -1.3659388e+00
 -2.4421332e+00
 -3.2376261e+00
  4.0002844e-01
  2.2669117e+00
  1.9375259e-01
  1.2680769e+00
 -8.8498183e-02
 -1.2375219e+00
 -1.3484965e-01
 -8.7030515e-02
  1.5650594e-01
  1.3949788e+00
  3.7939572e-01
  2.6141876e-01
 -2.8204063e-01
  1.1570215e+00
  1.0473367e+00
 -1.0055665e-01
  8.1022477e-01
 -1.9252667e-01
  5.1988244e-02
 -7.5528145e-01
  1.1437005e+00
  2.8909892e-01
  4.9309087e-01
 -2.0661543e-01
  3.5752386e-01
 -5.0204104e-01
 -1.3201602e-01
 -4.8019302e-01
 -3.0127707e-01
  2.1146321e+00
 -1.0674270e+00
 -2.0695470e-01
  7.8394506e-03
  6.5719211e-01
  9.3257391e-01
 -7.7795247e-03
 -3.8879198e-01
 -3.7628703e-02
  1.2420520e-01
 -1.5060274e-01
 -5.6996799e-01
  3.9036372e-01
  1.6805708e-01
 -6.8805724e-02
  1.4191477e-01
 -2.2189364e-01
  8.0877654e-02
 -3.0291694e-01
 -9.1822118e-02
 -6.0620821e-01
  2.2315365e-01
 -3.7225004e-02
 -2.0137554e-01
 -7.9375766e-03
 -6.4466432e-02
 -4.5316872e-01
  2.9381603e-01
 -1.0951791e+00
 -2.2068433e-02
  6.4022586e-02
 -8.4075731e-01
  1.6854157e-01
  5.6233913e-01
 -5.6840485e-01
  2.3613989e-01
  4.4219568e-01
  3.3019069e-01
  5.1347506e-01
  2.3641741e-01
  2.2726549e-01
 -2.5249198e-01
 -3.1616959e-01
  4.2886421e-01
  3.7808698e-01
  2.5920698e-01
  7.7114999e-02
 -1.3464616e-01
  5.1974051e-02
  6.7151809e-01
  1.5663378e-02
 -3.5377437e-01
  3.6088538e-01
 -1.2954049e-01
  8.3848529e-02
  1.5052740e-01
 -4.1854662e-01
 -2.4564714e+00
  1.2570029e-01
 -1.7303424e-03
 -2.8529263e-01
  3.3989459e-01
 -1.5572974e-01
 -4.9314025e-01
  4.0041220e-01
  2.6311839e-01
 -1.3780041e-01
 -6.1813915e-01
  3.4503525e-01
  5.6903392e-02
  1.8813995e-01
 -1.2695584e-01
 -1.5181988e-01
 -3.2323167e-01
 -5.2875501e-01
  3.9210254e-01
 -4.2955041e-01
 -2.0728627e-01
 -7.5518978e-01
  1.5444051e-01
  1.5473042e-01
 -1.7202725e-01
  2.4779813e-01
  4.3920615e-01
  2.7077949e-01
  5.8436686e-01
 -7.1966890e-03
  5.3041589e-01
 -2.7872825e-01
 -2.4685957e-01
 -1.4439502e-01
 -2.0887580e-02
 -1.4358306e-01
 -3.0203903e-01
  3.0307367e-01
 -5.1494431e-01
 -1.2028248e-01
 -4.7621030e-01
 -9.5684119e-02
  3.4757622e-02
  6.4347064e-01
  1.0585788e+00
  1.1169431e-01
  8.8751018e-02
  4.3958142e-02
  5.0112724e-01
  7.1844555e-02
 -8.3098896e-02
  6.3484967e-01
 -3.4958965e-01
  1.1052925e-02
 -3.1035367e-01
  5.9627426e-01
 -2.4921377e-01
  2.0240489e-01
  6.9351560e-01
 -1.2272337e-01
  2.5263962e-01
 -4.3444186e-01
  9.7489595e-02
 -4.1000605e-02
  2.4713382e-01
  4.1190436e-01
  3.0244750e-01
 -1.1517761e-01
 -6.0959536e-01
  5.1739037e-01
  4.3939203e-02
  2.4599133e-01
  5.6986505e-01
 -1.1272075e-02
  5.3442335e-01
 -4.4297245e-01
  5.1745959e-02
 -8.4885567e-02
  1.8373077e-01
 -2.7554843e-01
 -2.7024567e-01
 -5.1349318e-01
  1.5469551e-01
 -5.1169717e-01
 -3.3033752e-01
  1.1773022e+00
  2.2724317e-01
  9.8979557e-01
 -3.3302587e-01
 -1.7042163e-01
 -9.3862557e-01
 -1.1036028e+00
  3.3075589e-01
  1.9971485e-01
 -1.6178444e-01
  3.5997588e-02
  1.0940646e-01
  1.3864702e-01
  2.1033174e-01
  6.4675391e-01
 -8.6384609e-02
 -6.5809053e-01
  1.8470952e-01
  2.8785485e-01
  2.3260839e+00
 -1.6787919e+00
  1.8353416e-01
 -1.5755568e-01
  2.6188627e-01
 -2.2270195e-01
  3.7482199e-01
  6.1837740e-02
  8.5542113e-01
 -1.6030104e-01
  4.1406807e-01
  6.1993128e-01
  5.6011462e-01
  2.8669220e-01
  7.0273787e-01
 -9.2528045e-01
  1.6362086e-01
  7.4129604e-02
  4.9154738e-01
  4.4568874e-02
 -3.3919275e-01
  4.4397408e-01
  4.3327248e-01
  1.5563919e-01
  8.0762601e-01
 -8.2198548e-01
 -3.6122769e-01
  3.5667259e-01
  4.8039880e-01
 -2.8460181e-01
 -4.8734326e-02
 -3.0677699e-02
 -1.7424291e-01
  3.5211486e-01
  7.9318509e-02
 -1.1918464e-01
  1.9300520e-02
 -4.2674115e-01
  1.1496907e-01
  1.9670765e-01
 -6.6041805e-02
 -3.4726959e-01
  6.0104507e-01
  3.7311149e-01
  2.3336464e-01
 -3.5826378e-02
 -5.2895620e-02
  1.8137060e-02
  7.6454920e-01
  4.7579505e-02
  9.6775293e-02
 -1.6234837e-01
  3.4564126e-01
  7.1873434e-02
 -2.1532266e-01
  6.7508274e-01
 -1.5602690e-01
 -3.5474773e-02
 -5.0065484e-02
 -3.7088725e-01
  3.7861270e-01
 -1.5623784e-01
  4.6223813e-01
  2.0952987e-02
  2.7139068e-01
 -2.9225647e-02
 -9.4159693e-01
  1.1400080e-01
 -8.1551069e-01
 -1.3278952e-01
  3.1556919e-02
  2.8750673e-01
  7.5471051e-02
 -6.1067545e-01
  3.3665037e-01
 -3.5657857e-02
  4.2335641e-01
 -2.2663900e-01
 -1.8140897e-01
 -3.9401140e-02
  4.1933528e-01
  8.6218163e-02
  5.3208888e-02
  2.1210566e-01
 -6.8590975e-01
 -5.8172278e-02
  3.7066129e-01
  2.5491983e-01
 -2.3245747e-01
  3.8321471e-01
  1.1584854e-02
  1.9262418e-01
  4.8212576e-01
  7.1144536e-02
  2.3478864e-01
 -3.3917926e-02
  6.6478781e-02
 -1.8180208e-01
 -1.1467671e-01
 -6.8730611e-01
  4.1890168e-01
 -4.1229087e-01
 -2.1077192e-01
  5.3064126e-01
 -4.5947868e-01
  7.3263699e-01
  6.2549424e-01
 -6.3554846e-02
 -7.0913517e-01
 -3.2250655e-01
 -2.0403227e-01
  2.1101947e-01
  2.5835142e+00
 -3.9069706e-01
 -1.1853840e+00
  1.2810822e+00
 -1.1827444e+00
 -1.7685186e+00
  1.8516241e+00
 -2.5117594e-01
  3.0202844e+00
  3.8494202e-01
  5.1382071e-01
  1.7412868e-01
 -7.9859525e-01
  7.9609758e-01
 -2.0188560e+00
  2.4132605e-01
  2.0209932e+00
 -1.8422037e+00
 -1.6051145e+00
 -1.5497977e-01
 -1.8367206e+00
  3.8625395e-01
  5.4338640e-01
  4.0177357e-01
 -9.6594226e-01
 -2.0362277e+00
 -2.1826169e+00
  1.0754795e+00
 -6.5158659e-01
 -1.3635992e+00
  1.0469024e+00
  5.5754322e-01
  1.0815977e+00
 -8.3965391e-02
  5.1190847e-01
 -2.3165836e+00
 -2.3635969e+00
 -4.9774879e-01
  7.4296516e-01
  2.4207833e+00
  1.5605046e+00
  2.2331805e+00
  6.5129854e-02
 -2.5654919e+00
 -8.3607441e-01
  1.7329718e+00
 -9.9990427e-01
  5.8955461e-01
  7.7109349e-01
  1.3266126e+00
  2.0553687e+00
  1.0676784e-01
 -6.0273558e-02
 -9.6197462e-01
  6.8054557e-01
  5.6492823e-01
  4.5052588e-01
  3.2837307e-01
  1.9941865e-01
 -2.7283129e-01
  8.7923384e-01
  4.5686193e-02
  4.4009441e-01
 -9.9300340e-02
  5.6583881e-01
  1.1492662e-01
  2.4372756e-01
  5.6939936e-01
  2.0859668e-01
  3.9004552e-01
 -1.6000330e-02
 -2.7349132e-01
  3.8196030e-01
 -2.2115073e-01
  2.4444364e-01
  8.7119609e-01
 -2.8609705e-01
 -1.5661269e-01
  2.3111898e-01
 -2.5854176e-02
 -2.6768303e-01
  4.7942594e-01
  1.0391988e-01
 -2.0262364e-01
 -8.3792664e-02
  3.9046314e-01
  5.1569903e-01
 -3.2047588e-01
 -5.3441003e-02
 -2.1950588e-01
 -3.3667085e-01
 -4.9818161e-01
 -9.6411061e-01
 -2.7195096e-02
  1.9010131e-01
 -1.0509052e-01
 -1.9451644e-01
 -1.0337424e-01
  2.6071036e-01
  5.4718637e-01
 -3.7197822e-01
  2.6069674e-01
 -1.6708967e-01
 -4.4099590e-01
  1.1626857e-01
 -1.4198059e-01
 -4.8709521e-01
 -1.7714912e-01
  3.1056169e-01
 -4.6681166e-01
 -1.9006844e-01
 -5.5046201e-02
 -5.7280946e-01
  1.8367068e-01
 -1.6545708e-01
 -2.5783110e-01
 -1.0854676e-01
 -2.2438996e-01
 -2.1666536e-01
 -3.4452435e-01
 -2.4242802e-02
 -8.1817389e-02
 -4.6662676e-01
  1.3734899e-01
  2.5064158e-01
 -6.3293391e-01
 -3.5533920e-01
 -1.8336815e-01
 -1.0582286e-01
  2.0195781e-01
  2.0940702e-01
 -1.5136206e-01
  2.2060335e-01
 -1.0453165e-01
  1.3659577e-01
 -5.0429600e-01
 -7.2473717e-01
  3.2521534e-01
  4.5558941e-01
  7.1030778e-01
  1.8749353e-01
 -1.8447462e-01
  6.2685385e-02
 -7.7720761e-02
  2.2758481e-01
 -1.1194414e-02
 -6.9170845e-01
  6.4903939e-01
 -2.6798546e-02
 -2.2698177e-02
 -3.4403265e-01
  3.3691597e-01
  2.1745026e-01
  2.5957447e-01
  1.7496558e-01
 -6.8314910e-02
 -6.6832840e-02
  2.6706553e-01
  5.7537425e-01
 -3.2086927e-01
 -3.5611996e-01
 -4.8355591e-01
  1.5911436e-01
  2.6162344e-01
 -4.5714113e-01
  6.1580643e-02
  6.2673753e-01
  3.3149678e-01
  4.7918776e-01
  7.2833842e-01
 -2.9455075e-02
 -8.0788344e-02
  4.5262149e-01
 -6.6050923e-01
 -2.3720719e-02
 -1.9893618e-01
  2.9965279e-01
  1.5562700e-01
 -3.7015957e-01
  5.0474262e-01
  8.1999063e-01
  2.9175022e-01
 -1.5479493e-01
  1.5830269e-01
  5.6924254e-01
 -3.7757170e-01
  1.8774857e-01
  5.0388962e-01
  9.9861205e-02
  9.9884301e-02
  1.0940504e+00
 -1.8213414e-01
  2.6786932e-01
  3.1022249e-02
 -7.2129518e-02
 -3.8626835e+00
 -4.4845078e-02
 -3.3850619e-01
  4.0870756e-01
 -5.1397491e-02
 -7.1463150e-01
  1.4951321e-01
 -3.2627892e-01
  1.4035480e-01
 -4.9126655e-01
 -6.8976551e-02
  5.3038746e-01
 -1.2301710e-01
 -2.7709397e-02
 -6.2683314e-01
  5.0139660e-01
 -1.6310482e-01
  4.0388232e-01
  2.9583862e-01
 -6.1415315e-01
 -8.3822608e-02
  5.1972544e-01
 -2.5257480e-01
 -2.8556891e-02
  2.4551850e-02
  1.9571970e-01
  2.5756195e-01
  1.1150292e-01
 -8.0662183e-02
 -4.9601892e-01
  1.7524223e-01
 -2.2212589e-01
  5.1173174e-01
 -1.4014292e-01
 -6.1439562e-01
 -5.1027393e-01
  2.0677593e-01
  1.3576183e-01
 -1.3337946e-01
 -2.2658579e-01
  1.0775305e-01
 -6.2639093e-01
  3.0114543e-01
  2.2815400e-01
 -3.8611406e-01
 -1.7337269e-01
  5.8402654e-02
  4.3560213e-01
 -6.1221087e-01
 -1.2204862e-01
 -7.9821549e-02
 -7.0055336e-01
  6.8658441e-02
 -3.0562025e-01
 -2.6403919e-01
  7.8905928e-01
  2.2753900e-01
  2.5385880e-01
  5.5806684e-01
 -7.5198907e-01
  3.3294655e-02
  2.5808010e-01
 -2.4020936e-01
  3.6010215e-01
 -9.1054195e-01
  9.2945397e-01
 -2.6549962e-01
 -2.2030723e-01
 -1.2116640e-01
  1.7900261e-01
 -6.7927800e-02
  5.8610819e-02
 -8.7014991e-01
  1.2118347e+00
  2.1591473e+00
  4.5360742e+00
 -1.6294072e+00
 -1.4594963e-01
 -1.5063621e+00
  1.7338617e+00
  9.7165596e-01
  1.1436588e+00
 -3.9463983e+00
  2.9572818e-01
 -9.2575336e-01
 -8.1120420e-01
 -1.2377293e+00
 -1.2998515e+00
  5.2907479e-01
  9.6895564e-01
 -5.0419796e-01
 -4.0018147e-01
  1.2909135e+00
  2.7537994e+00
  3.0039725e+00
  6.5687776e-01
 -1.4526716e+00
 -6.7639574e-02
 -2.1389811e+00
  2.0235076e+00
  5.0251812e-02
 -1.6547105e+00
  7.4317890e-01
 -1.9909635e+00
  2.5231865e-01
  3.6888233e-01
  6.9640231e-01
 -1.0500357e+00
  2.9594736e+00
  9.9492234e-01
  1.4496938e+00
  7.4992907e-01
 -1.2633072e+00
  8.9727044e-01
  6.2443414e-03
 -1.7054361e+00
 -1.0733026e+00
  3.0315575e-01
  7.1511656e-01
  2.0897763e+00
  9.6742326e-01
 -2.9788145e-01
 -1.9688258e+00
  1.0625665e+00
  8.5843545e-01
 -2.5834319e-01
 -1.1310130e+00
  1.7162876e-01
  5.8170330e-02
  5.3815979e-01
 -3.3274791e-01
 -2.8697392e-01
 -2.5842583e-01
 -1.2550226e-01
  2.3387723e-02
  1.1726141e-02
  8.4040195e-02
 -2.9256546e-01
  4.6059206e-02
  2.3225912e-01
 -1.2870018e-01
  2.9193330e-01
  1.9479354e-01
  3.5127544e-01
 -4.2831764e-01
 -2.0379415e-01
  6.2614703e-01
 -6.0549068e-01
  3.1090271e-02
 -2.2986288e-01
 -3.7491891e-01
  1.0465872e+00
 -3.3755875e-01
 -3.3295259e-02
  1.7154908e-01
  6.4851689e-01
  1.3874061e-01
  2.8873831e-01
  6.6007560e-01
 -2.1959822e-01
  9.7990930e-02
 -6.9180775e-01
 -1.1617681e-01
 -7.5485027e-01
  1.9351263e-02
  3.1248224e-01
 -7.1058258e-02
 -6.9591409e-01
  8.4973937e-01
 -3.1240579e-01
 -3.3114076e-02
 -1.0389920e+00
  2.3178465e+00
 -2.3286009e-01
  9.6858257e-01
  2.6521450e-01
  9.2370249e-02
  9.9277705e-01
 -4.4027597e-02
  2.6230496e-01
 -1.6895854e-01
 -6.3725188e-02
 -4.0026537e-01
 -2.6154891e-01
 -3.9366233e-01
 -4.7660425e-02
 -2.7567342e-01
  7.4647880e-01
 -2.8299955e-01
 -4.7834706e-01
 -5.1541066e-01
 -3.2990956e-01
 -1.4477861e-01
 -7.0108943e-02
  3.9112365e-01
  3.2142201e-01
 -3.5160564e-02
  2.1488894e-02
 -4.6776515e-01
  1.1684892e-01
  2.0331632e-01
 -9.3856341e-01
 -2.5623542e-01
  1.0434493e+00
  5.3060707e-02
  2.7138641e-01
  2.7490434e-01
 -9.0778589e-01
  5.9598452e-01
  6.3314432e-01
  1.2116200e+00
 -1.0296744e+00
  2.2967362e+00
 -1.5567604e-01
  3.9428896e-01
 -8.4576273e-01
 -4.1310063e-01
 -5.1199213e-02
 -1.0711324e+00
  1.6152365e+00
 -6.6080171e-01
  4.6118289e-01
 -1.0732104e+00
 -2.3812778e+00
  4.8227590e-01
  1.3624201e+00
  9.5283192e-01
  1.9270467e+00
 -3.4067076e-01
  7.5132167e-01
  2.7880198e-01
 -2.5994769e-01
  1.5638154e+00
  1.3335087e+00
 -1.1674148e+00
  7.2555020e-02
  2.5440250e-02
  1.3188930e+00
  9.7740620e-01
  3.6562533e+00
 -4.3947136e-01
 -4.3782644e+00
 -3.2332379e-01
  1.3049492e+00
  1.4825999e+00
  1.8393658e+00
  1.0390966e+00
 -1.1793078e+00
 -2.1240208e+00
 -1.5767225e+00
  2.2376566e+00
  7.2430271e-01
 -3.0882129e-01
 -1.7370837e+00
 -1.0220013e+00
  1.7733107e+00
 -1.3429213e+00
 -1.1428268e+00
  1.1863567e-02
  6.8581915e-01
  1.4351608e-02
 -2.8073010e-01
 -7.8113061e-01
  1.0763634e+00
 -4.4967616e-01
 -1.1265520e-02
 -2.4099907e-01
  3.5582486e-01
 -3.7305512e-02
  8.7976400e-03
 -3.1132832e-01
  5.7449436e-01
 -2.3852123e-01
  9.0153569e-01
 -4.1142535e-01
 -1.2001685e+00
  2.7813725e+00
 -2.4581328e-01
 -4.0956163e-01
 -7.5800210e-01
  5.9418100e-01
 -8.2008755e-01
 -4.1227496e-01
  1.4806819e+00
 -2.4409132e-02
  1.5898676e+00
 -3.9517778e-01
  1.4568027e+00
 -2.3922417e+00
 -1.7924378e+00
 -1.8873450e+00
  5.5816621e-02
 -2.8654864e-01
  4.7420618e-01
 -1.1540186e+00
 -1.9072201e+00
  8.5678899e-01
  1.4074271e+00
 -1.0513924e+00
  2.3114954e-01
  8.8529301e-01
  6.4338422e-01
 -4.9275434e-01
  1.0704311e+00
 -3.2544978e+00
 -1.0866012e-01
 -1.2084293e-01
  1.7864929e+00
  2.2868340e+00
  4.4667247e-01
 -8.9888567e-01
 -9.4358289e-01
 -3.9984097e+00
  1.3034248e-01
  7.0727319e-01
 -2.7978990e+00
  1.1087639e-01
 -3.0024297e+00
 -1.3093444e+00
  1.4169759e+00
  2.1997581e-01
 -2.5944886e-01
  1.1124582e-01
  4.4302410e-01
 -5.0638080e-01
 -3.5678437e-01
 -3.0058570e-02
 -6.8957645e-01
  7.1657985e-02
  1.3910033e-01
 -1.6393232e+00
  6.7327783e-02
 -2.6339769e-01
 -8.1816934e-02
 -1.5453367e-01
  1.5252845e-01
  5.2643365e-01
 -5.4389346e-02
  4.0458673e-01
  7.0375127e-01
  3.2992598e-01
  2.1549934e-01
  2.4202339e-02
  1.4930230e-01
  1.2157773e-01
 -4.8515809e-01
 -4.0423465e-01
 -5.4834288e-01
 -8.8708505e-02
  4.6234524e-01
  2.8189301e-01
  3.3763790e-01
  3.8652748e-01
 -2.0105970e-01
  3.7088639e-01
  2.5760967e-01
 -3.9028352e-01
 -1.1374342e-01
 -4.3173069e-01
 -5.2608979e-01
  5.4606509e-01
 -7.1828075e-02
 -5.8393461e-01
  4.6426031e-01
  4.4624814e-01
 -2.8306013e-01
 -4.3386021e-01
  2.5627881e-01
 -1.5344225e-01
 -7.3742145e-01
 -9.4632268e-02
 -4.8881567e-01
 -5.2214611e-01
 -1.6924305e-01
  9.8485216e-02
 -2.2511918e-02
 -1.3396852e-01
 -4.2910877e-01
 -7.8625083e-03
 -7.4837434e-01
  8.0523074e-02
  5.7221025e-01
  6.4723790e-02
  5.5901218e-02
  7.7843523e-01
  4.7516488e-02
  6.0976601e-01
  6.2157917e-01
  1.9073911e+00
  2.2250845e-01
  1.1721428e-01
  3.3557373e-01
  6.7283660e-01
 -8.0020346e-02
  4.1585945e-02
 -8.2333529e-01
 -4.8716281e-02
 -1.1498532e-01
 -1.9706953e-01
  3.8899577e-01
 -6.5312579e-02
  1.6229206e-01
 -4.3997079e-02
 -2.5898677e-01
  4.6275920e-01
 -7.8885084e-01
  1.1421755e-02
  1.8979321e+00
 -1.1674225e+00
  6.4765766e-02
  4.8899320e-01
  2.1021683e+00
  2.2391589e-01
  1.0497925e-01
 -4.1455066e-01
 -8.0010402e-01
  1.9442030e+00
  5.3894013e-01
  1.6726170e+00
  3.5027435e-01
  8.0056745e-01
 -3.3430729e+00
 -3.5122061e-01
  7.4504733e-01
 -2.2694652e+00
 -5.6929415e-01
  1.3264850e-02
 -7.2228956e-01
 -1.7923388e+00
 -5.6361133e-01
 -3.6093426e-01
  8.9547276e-02
 -4.3376727e+00
  5.3775907e-01
 -2.6293981e+00
  8.4395194e-01
 -2.4767151e+00
  1.9231699e+00
  1.7286276e+00
  3.0258679e+00
  8.2043272e-01
 -1.4205668e+00
  1.4197028e+00
 -2.4869633e+00
  4.6148717e-01
 -1.7586597e+00
  3.1419697e+00
 -1.5944386e+00
  3.2690094e+00
  9.5832819e-01
  1.5504581e+00
  1.8282709e+00
 -3.4514901e-01
 -2.3456321e+00
  1.9049197e+00
  6.5807837e-01
 -1.5543865e-01
 -2.4549839e+00
 -2.0786736e+00
 -1.9526075e+00
 -7.3814958e-01
 -5.8338058e-01
 -3.4594572e+00
 -4.9405141e+00
 -3.5760813e+00
 -4.6914840e-01
  3.9135876e-01
  2.4123898e-01
  5.2607995e-01
  7.5238776e-01
 -1.7704144e-01
 -1.2756917e-01
 -1.8746462e-01
  1.6427502e-01
 -2.8501061e-01
  3.2900788e-02
 -1.2950484e-01
  4.0506595e-01
  6.7261785e-01
 -4.1136384e-01
 -2.5491109e-01
  1.7391908e-01
 -5.7438618e-01
  5.5371779e-01
 -1.7311868e-01
  8.6970098e-02
 -8.2562798e-01
 -1.2563133e-01
 -5.4875576e-01
  2.2285370e-02
  7.7553898e-02
  2.9022118e-01
  3.2382730e-01
  2.9321522e-01
 -2.5060165e-01
 -2.3235798e-02
 -1.0841058e-01
 -4.3238938e-01
  3.9790538e-01
 -5.3622407e-01
 -6.4882532e-02
  2.7403715e-01
  4.1920072e-01
 -1.0563081e-01
  3.2620406e-01
  9.0962976e-01
 -4.4942176e-01
 -3.9141554e-01
 -5.4421026e-01
  9.6679831e-01
  7.8724664e-01
  4.8783818e-01
  3.1960934e-01
 -5.9052336e-01
  3.3347040e-01
  3.5440233e-01
 -8.6920756e-01
 -3.6927962e-01
  7.4989730e-01
  3.6316633e-02
 -8.1920511e-01
 -4.5660397e-01
 -2.4682954e-01
 -4.4126728e-01
  3.9916611e-01
 -3.6936814e-01
 -1.1236550e-01
 -1.8356447e-01
 -6.2840772e-01
  3.3430678e-01
 -1.2980096e-01
 -1.7826652e-02
  2.1307775e-01
 -3.3280235e-02
  1.3433214e-01
  3.0960485e-02
 -2.1860197e-01
  4.7301665e-01
  2.8865167e-01
  1.9621816e-01
  9.4855428e-03
  1.6752799e-01
 -5.4532731e-01
 -1.1321491e+00
 -1.1230531e+00
  4.2600212e-01
 -2.8016666e-01
 -1.9728270e-01
  3.9200437e-01
 -3.1829074e-01
  1.2642013e-01
  3.2810718e-02
 -1.2496283e-01
 -2.4781501e-01
  6.0827971e-01
 -1.6601796e-01
 -7.9599601e-01
 -8.6406626e-02
  6.2084567e-02
 -2.3977265e-01
  4.1576123e-01
  2.7060491e-01
 -6.7670029e-01
 -2.3859050e-02
 -8.3705670e-01
  4.4962883e-01
  3.5614461e-01
  2.3846929e-01
  5.7088155e-01
  5.3174317e-02
  6.5977979e-01
  1.1485006e+00
  6.8702328e-01
  3.7604892e-01
  2.2260284e-01
  4.9226025e-01
 -1.9549290e+00
 -8.1620771e-01
  2.4572875e-02
 -6.2718403e-01
  7.2969973e-02
  1.0388625e+00
  6.1058871e-02
  2.7238792e-01
  7.7938873e-01
 -8.1719476e-01
 -1.1438730e+00
  4.4913831e-01
  4.5762235e-01
 -4.6677807e-01
 -7.0364875e-01
  4.5447326e-01
  2.1814790e-01
  1.0741791e+00
 -2.8669482e-01
  1.6380334e-01
  5.9218663e-01
  5.3930081e-02
 -6.6899610e-01
  1.7284717e-01
 -5.5417573e-01
 -5.9251469e-01
 -1.9950692e-01
 -1.6774824e-01
 -2.9563901e-01
 -2.2620896e-01
 -5.4581124e-01
  6.3766330e-02
 -7.3099756e-01
 -6.1432850e-01
 -6.6827303e-01
 -1.2608862e+00
  8.5711223e-01
 -1.1237375e-01
 -6.9876152e-01
  8.4304458e-01
 -7.3794079e-01
  7.5193450e-02
  3.7025407e-01
 -1.0026801e-01
  1.6303000e+00
 -3.8547978e-01
 -7.8829890e-01
 -7.5753158e-01
  6.8809867e-01
  1.8710321e-01
  2.4635698e-01
 -9.1094434e-01
  1.1344243e+00
 -1.8064169e+00
  6.6218859e-01
  7.5209135e-01
  3.6564660e+00
 -9.4832748e-01
 -2.3998001e+00
  7.5151473e-01
  5.9228545e-01
  5.5618596e-01
 -7.8188121e-01
 -2.1044359e+00
 -2.3611588e+00
 -1.9000736e+00
  1.0992762e+00
 -1.4725623e+00
  1.0424347e+00
 -1.0592438e+00
  5.0848156e-01
 -2.4613881e+00
  1.9287412e+00
 -4.5702346e-02
 -2.5347250e+00
  7.1533567e-01
  1.7516701e+00
  5.6086355e-01
  7.0372874e-01
  1.0995147e+00
  4.1681668e-01
  7.5973946e-01
  1.5666933e+00
 -3.8145166e-02
 -2.7605668e-01
  8.0770773e-01
  4.7487998e-01
  1.0839970e+00
  2.0185712e-01
 -1.0683488e-01
  1.8945904e-01
  6.9171023e-01
 -6.2432551e-01
 -2.9507328e-02
 -3.1615663e-01
 -2.4890532e-01
  3.1111470e-01
  4.3681316e-02
 -2.8811362e-01
  1.7127566e-01
 -1.1655670e+00
 -1.2158913e-01
 -9.2383498e-01
  5.2934575e-01
 -8.4030880e-03
 -1.1677153e+00
 -1.1331208e+00
  7.0168036e-01
  4.7845873e-01
 -3.4523776e-01
 -1.3112319e+00
 -1.1359388e+00
 -5.8402127e-01
  1.3117964e+00
  3.2929626e-01
  9.1083366e-01
  2.2458978e+00
  6.6119522e-01
 -2.4798429e-01
  2.2087438e+00
  1.6643831e-01
 -1.3379917e+00
  1.3298174e+00
 -1.0368391e+00
  5.4745201e-02
  2.9168963e-01
  1.8626014e+00
  1.1192056e+00
  1.8217297e+00
 -7.2673982e-01
  7.7268088e-01
  2.3014532e-01
 -3.1173956e-01
 -3.1772745e-01
 -1.3498337e+00
  1.0532224e-01
  2.2953796e+00
  1.3908783e-01
  1.1212442e+00
 -2.8270407e+00
 -2.9245716e-01
 -2.3964787e+00
 -2.1008183e-01
  6.5155482e-01
  6.7472208e-01
  1.2620870e+00
  1.4451644e-01
 -1.1183944e+00
 -5.8102870e-01
  8.2704574e-01
  1.0594659e+00
  1.3953581e-01
 -8.2895327e-01
 -3.4545243e-01
  2.0423067e-01
  1.8068543e-01
 -3.3854929e-01
 -5.9749061e-01
 -1.3097759e-01
  1.0782875e+00
  2.5469786e-01
  4.5276758e-01
  3.4468099e-01
  3.0672878e-01
 -3.0208987e-01
  2.2590682e-02
  1.0779970e+00
  1.3464542e-01
 -1.2270832e+00
 -2.4405317e+00
  2.8810692e-01
  8.3225024e-01
  5.1479554e-01
 -1.2257653e+00
 -5.1839334e-01
  1.3128098e+00
  5.5404389e-01
 -7.6896638e-01
  4.2158434e-01
 -2.3254305e-01
  1.1941329e+00
  2.1202174e-01
  5.6069911e-01
 -3.2264864e-01
  5.5455410e-01
 -8.9158416e-01
 -4.4775382e-01
  4.9362341e-01
  2.3373277e+00
 -1.2331582e+00
  2.4764931e+00
  1.8730392e-01
  3.1330924e+00
  2.1918318e+00
 -1.1573991e+00
  2.1119304e+00
 -2.4540021e-01
  5.1395339e-01
  2.0224364e+00
 -6.4784485e-01
 -2.2184231e+00
  2.1722541e+00
  1.1959381e+00
  1.2669908e+00
  3.2912439e-01
  3.3401018e-01
  1.6558723e-01
  1.4609644e+00
  1.5264528e+00
 -6.4195687e-01
  3.3397123e-01
  1.6097528e+00
  1.7804798e+00
  1.2745568e+00
 -1.1136310e+00
  8.5491979e-01
  1.0759274e+00
  4.4853672e-02
  7.6638675e-01
  8.5187781e-01
  2.5670081e-01
  7.5159019e-01
  3.8778061e-01
  5.0702488e-01
 -4.6492806e-01
 -1.9846313e-01
 -2.0912850e-01
 -1.0580616e-01
 -2.9159331e-01
 -4.6394715e-01
  8.7526217e-02
 -1.0718030e-01
  3.5028815e-01
  6.9145727e-01
  2.3266490e-01
  6.9536924e-01
  8.2061887e-01
 -7.3130883e-02
 -3.1007877e-01
  3.3415837e+00
  2.0517635e-01
  5.3005761e-01
  8.8319474e-01
  6.9653910e-01
 -8.6047339e-01
 -7.1515703e-01
 -1.6459013e+00
  1.4725498e+00
 -1.0978822e+00
  1.0668620e-01
 -2.6744691e-01
  2.7101433e-01
  5.0602339e-02
 -1.4149054e+00
 -1.7812563e+00
  1.5719680e+00
  1.9353679e+00
 -3.2604334e+00
  1.1877145e-01
 -1.6189948e+00
 -1.0509932e+00
  1.5363568e-01
 -2.7991083e-01
  1.3206443e-01
 -4.7117800e-01
  1.5500344e+00
  2.7856631e+00
 -5.9860725e-02
 -7.2073478e-01
 -1.4847841e+00
  1.0702649e+00
 -1.1289682e+00
 -1.1752069e+00
  2.1331253e+00
 -4.9724671e-01
  2.5491664e+00
 -2.4075000e-01
 -1.6719674e+00
  1.8503232e+00
  1.8711866e+00
  1.1657107e+00
 -4.9478036e-01
 -1.3450713e+00
 -9.1921681e-01
 -1.4676742e-01
  6.3580668e-01
  3.1230608e-01
 -3.8202301e-01
 -1.4260830e-01
  5.7581264e-01
  1.7214669e-01
 -8.4376879e-02
  3.7895843e-01
  2.0239234e-01
  2.9700211e-01
  2.1085292e-02
 -5.3329694e-01
 -3.8457581e-01
  2.7730429e-01
 -1.7913584e-02
 -5.6224668e-01
 -1.8343780e+00
  8.0235161e-02
 -1.1281288e+00
 -6.3191843e-01
  4.8374751e-01
 -2.2851275e-01
  1.7506278e-01
  1.9748661e-01
 -1.0651704e-01
 -1.6302472e-01
  2.0250702e+00
 -1.1277542e+00
  3.9423046e-01
 -9.9324769e-01
 -1.5030515e+00
 -8.7568057e-01
  1.3280591e+00
 -2.4930513e+00
  5.1408386e-01
 -5.0199866e-02
  1.3602416e-01
 -5.2111882e-01
 -3.6200923e-01
  2.7095079e-02
 -2.5426579e-01
 -1.9718273e+00
 -2.4554443e+00
 -1.0951875e+00
 -8.2974064e-01
  2.9931501e-01
 -1.7017591e+00
  4.8597291e-02
  2.4288371e+00
  1.6160063e-01
 -6.4855313e-01
 -1.3837022e-01
 -1.4247094e+00
 -1.3044549e+00
  6.5515232e-01
  1.9262739e+00
 -8.6268067e-01
 -2.0305309e+00
 -5.9590960e-01
 -2.4260685e+00
 -2.8116528e-02
 -1.4695630e+00
 -9.6315318e-01
  4.8790810e-01
 -6.5464102e-02
 -8.6753589e-01
 -9.6677446e-01
  1.0241309e-01
 -7.4514335e-01
  1.4221029e-01
 -8.5334796e-01
 -6.1399937e-01
 -5.3823858e-01
  8.1190139e-02
  5.1558048e-01
 -1.8416592e-01
 -2.3341523e-01
  2.9609215e-01
  2.1490401e-01
 -4.6142519e-01
 -1.4750120e-01
 -3.0981028e-01
 -1.5715776e-01
  8.8011932e-01
 -3.0323593e-02
 -1.1073441e-01
  5.7311092e-02
 -1.2263276e-01
  1.0803492e+00
 -4.8984873e-01
 -1.9423279e+00
 -1.8820260e-02
  1.1351389e-01
 -1.3442677e+00
 -4.1373777e-01
  3.6311641e-01
 -1.1696463e+00
 -2.5348589e+00
 -6.3590586e-02
  2.6482651e-01
 -9.9169590e-02
  5.4164931e-02
  3.6474493e-01
 -1.2749062e-01
  2.0725989e+00
  1.2896068e+00
 -1.4254986e+00
 -1.6528155e+00
 -1.0105528e+00
  1.4657093e+00
  2.7243934e+00
 -1.4032016e+00
 -3.8088012e-01
 -3.5367534e+00
 -8.8900757e-01
  1.2158847e+00
  8.2409519e-01
  7.9733509e-01
 -1.3071067e+00
 -1.5882692e+00
 -6.7117554e-01
 -3.5051417e-01
  5.0662525e-02
  1.8233826e+00
 -1.3054385e+00
 -2.2938761e-01
 -7.9749459e-01
  8.5770619e-01
 -1.1485400e-02
 -1.0421020e+00
 -6.1503994e-01
  1.4795406e-01
  1.5278407e+00
  1.8317147e-01
  2.5475457e-01
  1.4816229e-01
 -6.7547691e-01
  1.3173585e+00
  5.3788584e-01
  2.1475732e-01
 -2.3509389e-01
 -4.5275387e-01
 -1.7301477e-01
 -1.5704730e-01
  3.5064209e-01
  3.6597915e-02
  1.1278465e-01
 -1.7681730e-01
 -7.4627221e-01
 -7.4417330e-02
  5.7663351e-01
 -2.7150223e-01
  1.6531283e-01
  6.7820740e-01
  5.1154252e-02
  3.6638045e-01
 -1.2317988e-01
 -4.4644609e-02
  5.8180201e-01
  8.5717332e-01
  3.2508168e-01
  7.8444248e-01
 -6.1415255e-01
 -3.7729707e-01
 -3.4830448e-01
  2.8450274e-01
  5.3611815e-01
  2.7515927e-01
 -7.0368141e-02
  4.4782829e-01
  1.5550338e-01
 -4.5151368e-01
  6.4496535e-01
 -9.1848570e-01
 -6.3730592e-01
 -3.3443081e-01
 -5.0735193e-01
 -4.4016577e-02
 -2.4298501e-01
 -2.3231453e-01
 -4.5135874e-02
  2.0965733e-02
  1.9877639e-02
  3.5150722e-01
  7.4068084e-02
 -4.4501522e-01
 -1.2352587e-01
 -4.8652194e-02
  3.7205383e-01
  7.5936335e-01
 -1.4305861e-01
  4.2826432e-01
  4.2977741e-01
  4.3747154e-01
 -2.9095215e-01
 -3.2627109e-01
 -1.1192737e-01
  1.9564627e-01
 -4.2424536e-01
  5.1963300e-01
  2.0648265e-02
 -3.4873742e-01
  6.1664265e-02
 -2.0091255e+00
 -3.3377501e-01
 -1.2891209e-01
 -1.3929127e-01
  2.0623076e-01
 -5.9166886e-02
  1.8814546e-01
 -2.5699487e-01
  3.1590536e-01
  5.0254434e-01
 -1.6695768e-01
  7.3208725e-01
 -5.3017193e-01
 -8.6525254e-02
 -2.8276848e-02
  1.8686874e-01
 -2.0349458e-01
 -5.9124225e-01
 -6.0115379e-01
 -1.2959665e-01
 -1.9508804e-01
 -7.1433797e-02
  5.8739267e-02
  9.7754128e-02
 -4.9817748e-02
 -3.6987849e-02
 -5.2381712e-01
 -1.0804157e+00
  9.5440432e-02
 -5.9867039e-02
 -2.8029451e-01
 -3.2119349e-01
  2.6645356e-01
 -7.3580277e-01
 -2.9833829e-01
  3.0224890e-01
  3.7199014e-01
 -3.8247141e-01
  2.7390295e-01
  9.3508549e-03
  1.7474283e-01
  2.6784119e-01
  4.0156013e-01
  4.1602641e-01
  9.1297999e-02
 -2.5757292e-01
  1.6602357e-01
 -6.4589024e-01
 -6.1022365e-01
 -2.5986228e-02
 -7.3043071e-02
 -1.3279374e-01
 -3.8096115e-01
 -2.6411104e-01
 -2.8352192e-01
 -8.5011137e-01
  8.2176846e-01
  3.4175330e-01
 -2.4212992e-01
  1.5157501e-01
  5.7280988e-01
  3.3664256e-01
 -5.0443482e-01
  1.7863506e-01
  6.1468172e-01
  4.7680762e-02
  4.4605678e-01
  1.4823994e-01
  2.4527253e-01
  1.3714592e+00
 -3.1526357e-01
 -2.8776774e-01
  2.3444678e-01
  5.7594937e-01
 -3.1128304e-02
 -4.1765105e-02
  2.8721267e-01
  6.8024226e-02
 -2.5039259e-01
 -4.6112442e-01
 -3.8539175e-02
  5.9232205e-01
 -6.8587655e-01
  2.4849164e+00
 -4.5828351e-01
  1.0680062e-01
  5.3312168e-02
 -4.4202027e-01
 -2.3242560e-01
 -3.4294036e-01
 -9.5824823e-02
  1.2417220e-01
  2.5713485e-01
 -1.3579392e-01
  3.7503070e-01
  2.1402979e-01
  3.2070145e-01
  1.5107925e-01
 -1.0080044e+00
  6.2560141e-01
 -4.9608251e-01
  3.1333339e-01
  2.6395035e-01
  1.8655285e-01
  4.0665773e-01
 -4.4193104e-01
  1.2668967e-02
 -1.7252226e-01
  5.7682835e-02
 -4.8923142e-02
  1.5007029e-01
  7.6330259e-02
 -5.0117921e-02
 -2.8075969e-01
  1.6987811e-01
 -8.1364349e-02
 -2.0676962e-01
  4.8602667e-01
 -7.3033464e-01
  2.1113947e-01
 -3.2199833e-01
 -3.7981960e-01
  6.5729566e-02
 -1.1035462e-01
 -8.6578494e-01
 -5.2752703e-02
 -3.1691164e-01
 -3.4581417e-01
  1.1680280e-01
  5.6119543e-02
  2.2165695e-01
  6.7205864e-01
  1.1486176e-01
 -4.7600508e-01
 -8.0531783e-02
  2.7745324e-01
  1.7572966e-01
 -2.8351331e-01
  1.8669710e-01
  2.2635047e-01
  5.0889719e-01
 -1.3226956e-02
  4.0935373e-01
  2.1430381e-02
  6.7591071e-02
 -5.7279128e-01
  1.5141109e-02
 -1.3822572e-01
  3.3507683e+00
  1.3529483e+00
  5.8197302e-01
 -1.6319535e+00
 -8.0932361e-01
 -8.1318200e-01
  3.8324854e-01
  3.4352143e+00
 -1.8349167e+00
  1.0026415e-01
 -3.5132253e-01
 -1.1538974e+00
  1.9120251e+00
  4.1619503e-01
 -2.2167486e-01
 -3.7931712e+00
 -1.9427009e+00
 -9.8439550e-01
  2.8515720e+00
  1.5889815e+00
 -4.7869045e-02
 -5.4110751e-02
 -9.4826758e-01
  7.5691020e-01
 -3.3391078e+00
 -1.2925675e+00
  3.6201283e-01
 -1.6781503e+00
 -8.0456972e-01
 -1.1568946e+00
  3.1769359e-01
 -8.8990009e-01
  7.6412541e-01
 -8.3149797e-01
  3.4201530e-01
 -2.7277952e-01
 -1.1159304e+00
  9.5124984e-01
  1.6085343e+00
  1.0939506e+00
 -1.6839992e+00
  2.4429510e+00
 -1.0045996e+00
 -5.6691033e-01
  3.1714579e-01
 -4.4117751e+00
 -6.7201477e-01
  1.1176199e-01
  4.2028528e-01
 -2.1527383e+00
 -2.7710383e+00
 -9.0859145e-01
  6.4084455e-02
  2.8181679e+00
 -1.3369132e+00
 -7.3460525e-01
 -9.1055191e-01
  7.3402536e-01
 -2.4670010e-02
 -1.1596575e-01
 -4.0120110e-01
 -1.7933931e-02
 -6.5311283e-01
 -1.0256550e+00
 -1.3793722e-01
 -9.2807901e-01
 -9.8479319e-01
  1.4064587e+00
 -8.1208509e-01
  1.0042477e-01
 -2.2572792e-01
  4.1349390e-01
 -6.5524626e-01
  7.1397401e-02
  2.3621910e+00
 -6.6162670e-01
 -1.4858199e+00
 -1.2932904e+00
 -5.7836735e-01
 -2.2259202e+00
  3.6509144e+00
  7.3292613e-01
  1.9367253e+00
  1.6268519e+00
  3.4479210e-01
 -1.8551104e-02
 -7.3648089e-01
 -1.2236699e+00
 -2.0821786e-02
 -4.0465602e-01
  4.7059383e+00
  4.2809858e+00
 -4.4907699e+00
 -6.0821956e-01
 -3.5642728e-01
 -1.0862696e+00
 -2.4449551e+00
 -3.4555170e-01
 -1.5884953e+00
 -6.0944134e-01
  3.1946285e+00
 -3.9975277e-01
 -3.4825884e-02
  3.3073909e+00
 -5.5932182e-01
 -2.7742128e+00
  1.9988408e+00
 -3.5186443e-01
 -4.4966945e-01
 -6.4800042e-01
 -1.0183678e+00
 -1.0248244e+00
  2.2887337e+00
 -1.7527788e+00
  3.1499541e-01
  1.2444310e+00
 -2.9942520e+00
 -2.3719482e+00
 -2.6243820e+00
  1.4579858e-01
  3.3326418e+00
 -2.1901586e+00
 -1.7683374e+00
 -1.6592151e+00
  3.0661565e-01
 -4.3682700e-01
  8.0157435e-01
  5.9812248e-01
 -6.7392617e-01
 -5.0333869e-01
 -1.2987438e+00
 -5.4115295e-02
  6.6385490e-01
 -4.7744694e-01
 -2.5668722e-02
 -6.6624217e-02
  5.2763160e-02
 -4.4629195e-01
  1.7453018e-01
  8.1403941e-01
 -1.0737557e+00
  6.1651784e-01
  1.9940782e-01
  1.7979768e-01
  1.0809349e-01
 -6.3404578e-01
 -4.6900505e-01
  1.4248295e-01
  5.2702993e-01
  2.4997855e-02
  4.0442508e-01
  1.0903009e+00
 -3.4777787e-01
  2.4600865e-01
  2.7806431e-01
  1.8084056e+00
 -2.1793082e-02
  4.0426484e-01
  1.3057329e-01
  2.1616789e-02
 -6.0253906e-01
 -1.1821632e-01
  3.0696526e-01
 -5.1010346e-01
 -2.4088012e-01
  5.0084883e-01
  3.6008412e-01
  6.5695310e-01
  9.5665479e-01
  1.0961663e+00
  1.4771997e+00
  3.6649802e-01
  2.5588471e-01
  1.8639559e+00
 -2.7933651e-01
 -4.7233653e-01
  6.1979026e-01
 -3.3418272e+00
  9.7076967e-02
  8.1988007e-01
 -8.2730031e-01
 -1.1534160e+00
  4.4242615e-01
 -8.8977838e-01
 -9.6034929e-02
  5.8401272e-02
  3.5347667e-01
 -7.7511959e-02
 -4.6567094e-01
 -9.1969222e-02
  1.3514307e-01
 -5.9517436e-02
  2.1809793e-01
  3.1692630e-01
  1.6480187e-01
  1.2191119e-02
 -4.0816435e-01
  1.5899763e-01
  8.9060891e-01
  8.0730218e-01
 -2.4276876e-01
  8.7417418e-01
  1.6329837e+00
 -7.3102748e-01
  5.1072311e-01
  4.5879152e-01
  8.3408810e-02
  7.2794807e-01
  1.7378515e+00
  1.1948638e+00
 -1.0170753e-01
  8.3902752e-01
 -1.1189420e+00
  3.6882189e-01
  1.2322272e-01
 -1.2853713e+00
  1.3261029e+00
 -1.3254962e+00
  9.3515462e-01
  1.4559121e+00
 -9.9746233e-01
  7.7506557e-02
  5.1447284e-01
 -1.4365569e+00
  1.8805341e-01
  6.3448101e-01
  2.0794845e+00
  2.5771115e+00
 -1.5260522e+00
  2.7143960e+00
  2.1530305e-01
 -1.5083152e+00
  2.7437627e-02
  6.0075593e-01
  4.8902297e-01
  1.4120215e+00
  1.3556805e+00
 -2.6786780e+00
  7.3606551e-01
  1.8137447e+00
 -2.4454051e-01
  3.1085056e-01
  3.6933634e+00
  1.5023596e+00
  2.2758268e-01
  1.1882677e+00
  3.6778525e-01
  2.8920488e-03
  1.0694911e+00
  1.9751552e-01
  1.2065964e+00
 -3.0825141e-01
  1.1859717e+00
  1.4132202e+00
 -7.2879440e-01
  1.2066925e-01
  5.5351520e-01
  1.6419945e+00
  1.0449628e+00
 -9.9165492e-02
 -4.2335016e-01
 -8.0181465e-02
 -4.3827909e-01
 -2.5819600e-02
 -2.9564297e-01
  2.6329206e-02
  6.5496856e-01
  2.1578978e-01
 -4.7455987e-01
 -1.7711629e+00
 -2.4141015e-01
 -1.0384316e+00
  7.8004360e-01
 -2.2858469e+00
  5.9497380e-01
 -6.2855750e-01
 -6.8471730e-01
  1.2338275e-01
 -8.5925102e-01
 -1.0787526e+00
 -6.2412506e-01
 -3.9907449e-01
 -1.9462143e-01
 -3.3849356e-01
 -1.0210042e+00
 -1.1421179e-01
  1.1544712e+00
  2.3764922e-01
  8.3860606e-02
  4.0407166e+00
  8.7033725e-01
 -2.3792233e-01
  6.9110930e-01
 -1.0785950e+00
 -8.0826718e-01
  5.6817383e-01
  1.8445278e+00
 -7.2584885e-01
  5.3270608e-01
  1.8189223e-01
  1.2374563e+00
  4.3586844e-01
  1.2685164e+00
 -5.3573191e-01
 -2.7717748e+00
 -8.1102812e-01
 -9.9764204e-01
 -5.4870313e-01
 -3.1756903e-03
 -3.8524312e-01
 -5.6502786e-02
 -9.3379569e-01
  5.2160931e-01
  1.8463115e+00
 -8.0857730e-01
 -2.2033207e+00
  1.0712129e+00
 -1.0478053e+00
 -1.2305249e+00
  1.8411452e-01
  3.6097816e-01
 -1.7033353e-01
 -4.5300403e-01
  5.5810916e-01
  3.8885805e-01
  9.2224592e-01
  1.4666966e-01
 -1.0119154e-01
 -5.2796811e-02
  2.8798991e-01
 -7.2487824e-02
 -2.9546577e-01
 -2.6753363e-01
  6.9249205e-02
  8.2715940e-01
 -4.0154070e-02
 -1.3279500e+00
 -5.6149930e-01
 -3.6939746e-01
  4.2687649e-01
 -4.4590467e-01
  4.7280693e-01
 -8.5293740e-02
 -1.2448719e+00
  2.6368773e-01
  1.0614134e+00
  1.1402723e-01
 -6.6156691e-01
 -5.6859612e-01
 -1.0155705e+00
  1.3409860e+00
  5.0961632e-01
 -1.8920816e+00
  2.1748371e+00
 -9.5049065e-01
  2.3158236e+00
 -2.4060371e+00
 -1.0601904e+00
  7.2189075e-01
 -4.0815674e-02
  1.0438158e-01
 -8.9518517e-01
 -6.5644097e-01
 -7.5354707e-01
  4.1380987e+00
 -2.1347640e+00
 -1.3301620e+00
  2.3911796e+00
 -2.8033906e-01
  9.2266053e-01
 -2.6226804e-01
 -1.7518593e+00
  1.3086857e+00
  5.6857663e-01
 -1.8739074e+00
 -1.1496506e+00
 -1.4680113e-01
  9.9507242e-02
 -1.1055734e+00
 -1.0878209e+00
 -3.1263425e+00
 -3.2013050e-01
  2.0643864e+00
 -1.2501696e+00
 -1.2262225e+00
 -2.3545268e+00
  7.8205585e-02
 -8.6169243e-01
 -1.1837128e+00
 -3.9206630e-01
 -1.0326551e+00
 -1.6636439e-01
  9.6013266e-01
  1.2352280e-01
 -8.5944265e-02
  3.5158667e-01
  1.1595703e+00
 -5.2491575e-01
 -5.6621575e-01
  1.2848812e-01
 -1.1092374e-02
 -9.3410134e-01
  2.2752808e-01
 -2.8852826e-01
  7.9732537e-03
  4.3559954e-01
 -4.1480681e-01
 -3.6388230e-01
  6.1615717e-01
  3.8053879e-01
  2.3473170e-01
 -9.0727583e-02
  1.4500834e-01
  7.1137935e-01
 -1.3015889e+00
 -6.1008334e-02
  2.1713541e-01
 -1.9257760e-01
 -2.7791107e-01
  3.2467034e-01
 -7.4536271e-02
 -8.1363285e-01
 -5.6370831e-01
  2.3118868e-01
  2.1343717e-01
  4.5259658e-01
 -7.4590996e-02
  4.7160259e-01
 -1.1848254e-01
 -1.8201396e-01
 -4.8049390e-01
  2.5099960e-01
  4.5070712e-02
  2.3520353e-01
 -6.5494716e-01
  3.7090331e-01
  4.6975243e-01
 -2.6022241e-01
  1.2805425e-01
  2.6871657e-01
  5.3297222e-01
  1.1183331e-01
 -2.4050474e-01
 -6.8107426e-01
 -3.9700514e-01
  7.3652163e-02
  1.5700823e+00
  4.6437728e-01
 -1.3946129e-01
 -1.4971884e-01
 -9.8764099e-02
  2.9097378e-02
 -4.7386527e-01
 -2.1354064e-01
 -1.1054934e-01
  3.8155261e-01
  7.0623678e-01
  4.3616724e-01
  5.2173108e-01
 -4.2101708e-01
  2.6581857e-01
  2.9813582e-01
 -7.7730036e-01
 -1.4427507e-01
 -6.5912828e-02
 -4.6027151e-01
 -1.5878227e-01
  1.1355902e-01
  4.1543281e-01
  2.3610738e-01
  5.1329011e-01
 -8.4739037e-02
  8.3920431e-01
 -4.8868182e-01
  1.3677029e-01
  6.8384427e-01
  5.2170813e-01
  2.0070128e-01
  1.0597125e+00
 -5.5026281e-01
 -2.2346875e-01
 -7.6643173e-03
  1.6112456e-01
  3.5150811e-02
  2.3392849e-02
  4.0753475e-01
 -3.2786101e-01
  4.7156644e-01
 -6.4260289e-02
 -4.2064422e-01
  2.5215670e-03
  7.8182346e-01
 -3.0888411e-01
  2.0915297e-01
 -2.8395611e-01
  2.0445393e-02
  9.5804334e-03
  6.4542818e-01
 -4.3189961e-01
 -5.0996554e-01
  4.4332281e-01
 -1.7185229e+00
  2.9285890e-01
  3.4777123e-02
 -6.5319771e-01
  8.0185764e-02
  1.6338156e-01
 -3.5533023e-01
 -4.5446384e-01
 -8.7572642e-02
  1.1982900e+00
  9.1700375e-01
 -2.9611541e-02
  4.9180439e-01
  6.7135489e-01
  1.6235438e-01
 -1.7914128e-02
 -8.3651550e-02
  4.9760228e-01
  4.0854794e-01
 -3.2493070e-01
  1.1595562e-01
 -4.9342817e-01
  4.7816318e-01
  8.9691557e-02
 -6.8489105e-01
 -3.7698947e-02
  2.2033449e-02
  2.7484119e-01
 -6.2970912e-01
  4.0753227e-01
  2.1595560e-01
 -4.8354405e-01
 -2.5402322e-01
  8.3385938e-01
 -2.0622866e-01
 -9.2019990e-02
 -4.5772150e-01
  3.2576713e-01
  4.3709669e-01
 -7.2849703e-01
  5.5878814e-02
  1.6868082e-01
 -6.4698897e-02
  1.2778234e-01
  1.8175476e+00
  1.2275680e-01
 -4.0569293e-01
 -3.4221905e-01
 -2.2532560e-01
  3.7789294e-01
  1.1032435e-01
  1.9422766e-02
 -2.7727422e-01
 -6.9678360e-01
 -1.7664593e-01
 -5.0077581e-01
  9.4826865e-01
  8.2072067e-01
  2.9103795e-01
  2.4775994e-01
 -1.0871142e+00
  2.8801534e-01
  1.0028842e-01
 -2.6203889e-01
  5.3272303e-02
 -3.0246627e-01
  2.1081051e-01
  1.4998791e+00
 -1.1291176e-01
  4.3386719e-01
  9.7369596e-02
 -1.9168466e-01
 -6.9191735e-03
  8.7664711e-01
 -9.1772765e-02
  3.6932781e-01
  2.5446378e-02
 -2.4256182e-01
  1.3028151e-01
  4.1678113e-01
 -7.6081359e-01
  8.5390937e-01
  4.3477929e-01
  8.6951375e-02
 -1.8677367e-01
  4.0080782e-02
  9.6113868e-02
  9.8460808e-02
  3.6927843e-01
  2.5803930e-01
  3.2931118e+00
  1.4660688e-01
 -9.1269672e-02
 -1.4178911e-01
 -1.1587170e-01
  2.5760095e+00
 -3.1596285e-01
 -4.9965739e-02
  3.3920825e-01
 -4.2018735e-01
 -5.6405675e-01
 -8.5703814e-01
 -2.0176962e-01
  1.1117617e+00
 -6.0505551e-01
 -4.6706384e-01
  6.3073117e-01
  1.0767978e+00
 -2.2776163e-01
  8.8463241e-01
  2.9448041e-01
  1.0506423e-01
 -2.2405033e+00
  2.3195048e-01
  8.2292867e-01
  7.0473200e-01
  7.5094782e-02
 -9.0464011e-02
  2.8177881e-01
 -1.0029200e-01
 -3.1059074e-01
  4.0412098e-01
  7.0652403e-02
  1.0120340e-01
  2.6935232e-01
  1.0277105e-01
  7.5658655e-01
 -1.5459135e+00
 -1.0154581e+00
  2.7487054e-01
  1.0623382e+00
 -1.8702124e-01
  5.3725064e-01
  4.3688342e-01
  2.1333589e-01
  3.4670451e-01
 -5.9942037e-01
  9.6558053e-03
 -1.3951557e+00
  6.2075343e-02
 -3.8055092e-01
  9.6553594e-01
 -1.4754307e+00
  1.1428452e+00
 -4.3937009e-02
  1.1922530e+00
  1.8083779e+00
 -1.0229774e+00
  1.4858085e+00
  1.6562755e+00
  1.1118482e+00
 -1.2539995e+00
 -4.0722135e-01
 -1.1539114e-01
 -5.7811308e-01
  3.5100514e-01
 -3.6582413e-01
  2.0369029e-01
  2.0625598e+00
  3.0419722e-01
  6.5354323e-01
  2.6649451e-01
 -4.9683356e-01
 -4.6780834e-01
  1.0420956e-01
  7.7186823e-03
 -9.5200405e-02
 -3.7370127e-01
 -5.4891151e-01
  1.2078208e-01
  8.1099063e-01
 -3.4719262e-01
 -2.3001203e-01
 -4.4167370e-01
 -3.0851755e-01
 -1.0785977e-01
 -6.7924249e-01
 -7.4704640e-02
  5.0973189e-01
 -2.1316876e-01
  1.1939094e-01
  1.9478811e-01
 -7.0576862e-02
  1.4521489e-01
 -6.3227445e-01
 -3.7672457e-01
  2.6542360e-01
  1.0812958e-01
 -6.4012551e-01
 -2.5553715e-01
  2.8497267e-01
  3.1474596e-01
 -3.1027991e-01
 -9.0315747e-01
  6.8637632e-02
 -4.7073543e-02
 -5.4172003e-01
 -2.8575072e-01
  8.2686812e-02
  1.6191581e-01
  1.2738666e-01
 -1.0278060e-01
 -2.6251817e-01
  2.8931150e-01
 -5.4851264e-01
  8.2387429e-01
 -4.2494006e-02
  3.8287841e-02
  6.9030553e-01
 -9.5632327e-01
 -4.5565569e-01
  3.2672834e-01
  1.0303110e-01
  3.2533649e-01
 -5.6488398e-02
  4.7157916e-01
  5.7166968e-02
 -1.9624683e-01
  4.8968192e-02
  3.2645673e-01
  3.9424568e-01
 -2.1770947e-01
 -3.2019585e-01
  4.7295594e-01
  2.3919150e-01
  8.7659441e-02
  2.6726782e-01
 -2.5202656e-01
 -2.9633290e-01
 -5.1094055e-02
 -3.0421227e-01
 -2.9381193e-02
 -5.7473111e-01
  1.7192344e-01
  7.0510817e-01
  4.3999910e-01
 -8.1955278e-01
 -4.6743741e-03
  5.7080430e-01
  1.3780314e-01
  3.6707118e-01
  4.1362047e-01
  2.7582029e-01
  2.2509238e-01
  1.9164465e-01
 -1.3676664e-01
  3.7811086e-01
  1.9292857e-01
  2.3143604e-01
 -3.3668242e-02
 -5.5553943e-01
 -1.4298211e-01
  5.6350791e-01
 -6.2696975e-01
  2.2295108e-01
 -2.2391075e-01
 -4.3080655e-01
  4.6300068e-01
 -1.1001775e-01
 -3.4956712e-01
  4.2761423e-02
 -1.9020289e+00
  7.0533812e-02
 -2.5466643e-02
  7.0503694e-01
  3.3880273e-01
  3.9842033e-01
  5.5270845e-01
 -4.2982075e-01
 -3.0932543e-01
 -8.4575713e-02
 -8.3791900e-01
  1.5579658e+00
 -1.1318763e-01
 -4.2211890e-01
  1.1489528e+00
  7.1686909e-02
 -3.1694385e-01
  6.4790082e-01
 -2.2527409e-01
  5.2784055e-02
 -2.4508171e-01
  4.0826432e-02
  4.7396374e-01
 -5.9046626e-01
  6.5137500e-01
  2.1856503e-01
 -3.4440020e-01
 -1.7382342e-01
  6.9415957e-01
  1.7387710e+00
 -1.0144238e-02
 -8.3889924e-02
  1.3665567e-01
  2.8672811e-01
 -2.5805342e-01
  1.3189878e-02
  4.4182521e-01
  1.5144256e-01
  6.1143172e-01
  8.5549182e-01
  1.2714915e-01
  1.9488647e+00
 -7.7387160e-01
  1.3535179e+00
  9.8256034e-01
  7.2313118e-01
 -1.7539930e-01
 -1.7558578e+00
 -1.1829168e+00
  1.9626594e+00
 -1.2908607e+00
 -6.6564995e-01
  1.5642868e+00
  1.2127296e+00
  6.0125881e-01
  2.4901591e-02
 -1.1701090e+00
  4.5819093e-02
  1.7962457e-01
 -7.0767272e-01
  1.2098415e+00
  1.9599499e-01
  6.0591799e-01
 -3.6478248e-01
 -8.4060061e-01
 -2.0749397e+00
 -3.0737364e-01
  2.2593873e+00
  2.3472073e+00
 -1.2002908e+00
  6.1484039e-01
  1.5035899e+00
 -1.9076840e+00
 -5.6004161e-01
  1.0799898e+00
  1.1591331e+00
 -2.3402362e+00
  3.5073454e+00
 -4.6169868e+00
 -9.1147959e-01
  3.2582455e+00
  1.2828594e+00
 -5.4529536e-01
 -1.7512310e-02
 -6.8092674e-01
 -9.3479353e-01
  1.0063487e+00
 -2.8721704e+00
  2.8569765e+00
  1.0472714e+00
 -1.1201378e+00
  5.7238117e-03
 -1.5550796e+00
  3.2750082e-01
 -2.5264621e-01
 -1.4989654e+00
  3.0212298e-01
 -1.6286083e-01
  7.4379730e-01
 -4.6255995e-02
 -3.0263513e-01
  1.4280611e-01
 -8.5206431e-01
 -2.8681928e-01
  4.5050508e-01
  2.4640265e-01
  3.6298731e-01
  2.1058410e-02
  4.3468955e-01
  1.5552460e-01
  5.3698933e-01
  1.8373930e-01
 -2.2253911e-01
  2.0698145e-02
  2.2147232e-01
 -2.5646794e-01
 -1.0238073e+00
  1.5395053e-02
 -7.7899069e-02
 -3.9202732e-01
 -1.0154706e-01
  4.4632629e-01
  1.7574221e+00
 -6.5085635e-02
  1.9466241e-01
 -7.2116220e-01
 -1.1094251e-01
  5.9862614e-01
 -1.8459606e-01
 -1.7540607e-01
  6.5261841e-02
  2.9676884e-01
 -8.5661978e-01
  2.3920836e-01
  1.1935202e-01
  4.3238416e-01
 -4.6797422e-01
 -2.6372966e-01
 -4.0696070e-01
  1.8282716e-01
 -4.8256278e-01
 -1.0892682e-02
 -7.7273741e-02
 -1.6210230e-01
 -3.4309474e-01
  1.0463462e-01
 -5.9591496e-01
  4.2344779e-02
 -4.1961831e-01
 -5.0719295e-02
 -5.3890949e-01
 -3.9308883e-02
  3.5113758e-01
  9.5209405e-02
 -4.1669595e-01
 -3.1879288e-01
 -2.9009089e-01
 -4.8978340e-02
  4.3094611e-01
 -3.2989991e-01
  6.0363972e-01
 -8.3796352e-02
 -2.0178653e-02
 -5.0771385e-01
 -2.0471512e-01
 -8.5342222e-01
  8.2160497e-01
  5.9923142e-01
  3.7551722e-01
 -4.9087647e-01
  4.9707526e-01
 -1.3553591e-01
 -5.1752597e-01
 -5.8645022e-01
 -1.6140243e-01
 -8.7342389e-02
 -1.1217238e+00
 -2.9033020e-01
 -1.0350877e+00
 -9.3277770e-01
 -3.8784835e-01
  5.9836215e-01
 -1.4324245e-01
 -2.5445907e+00
 -1.9204935e+00
 -4.7891989e+00
 -1.0369562e+00
 -4.2789760e-01
 -8.8006359e-01
 -8.0223686e-01
  1.1621184e+00
  2.8613445e-01
 -6.3540488e-01
 -1.6731824e+00
 -2.2044294e+00
 -1.2859545e+00
  1.2323964e+00
  3.2163569e-01
 -4.8168674e-01
 -2.5932922e+00
  1.0679588e+00
 -2.7104149e+00
 -2.3464601e+00
 -1.0680754e+00
  3.0344129e-01
 -2.3028235e+00
 -2.5057664e+00
  1.9525875e+00
  6.4617950e-01
 -1.9680442e-01
 -4.5858943e-01
  8.5755154e-02
 -2.1137106e+00
 -9.6355379e-01
 -1.7807268e+00
 -8.0910593e-02
 -1.8367143e-01
  1.3525335e+00
  1.5821946e+00
 -1.9172975e-01
 -1.4437118e+00
 -1.0872604e+00
  1.2726578e+00
  3.9455029e-01
  4.1387945e-01
  7.3684943e-01
 -2.3434217e+00
  4.6166050e-01
 -4.2281330e-01
  1.5167224e-01
 -9.3547088e-01
  1.5119191e-01
  1.4670190e-01
 -7.4403024e-01
  5.8051586e-01
  1.7365211e-01
  1.4188766e-01
  2.1058835e-02
 -4.0926400e-01
  1.5433853e-02
 -1.4278308e-01
  6.0435388e-02
  2.1474612e+00
  2.0319982e+00
  3.0323210e-01
 -1.2101760e+00
 -5.3232855e-01
 -1.1385790e+00
 -3.1396868e+00
 -8.8137758e-01
  3.9534688e-01
 -7.2302693e-01
 -3.3618727e+00
  1.7299618e+00
 -1.3789496e+00
 -6.4443302e-01
  7.1631283e-01
 -3.1505120e-01
 -4.1864860e-01
  2.8947053e+00
  5.0685614e-01
 -7.9486704e-01
 -6.2651426e-01
  1.0724553e+00
 -1.4574697e+00
  4.8611629e-01
 -7.8361762e-01
  3.8030460e-01
  1.2252545e+00
 -2.2608978e-01
  8.0517650e-01
 -2.0828336e-01
  8.7227380e-01
 -2.4774313e-01
  9.6630991e-01
 -3.6217234e-01
  1.7725254e+00
 -1.8824245e-01
  4.6076459e-01
 -2.5914822e+00
 -2.4320366e+00
 -1.2535329e+00
  1.2472005e+00
 -2.0312588e-03
  1.5157372e+00
  3.3387923e-01
 -6.9100070e-01
  5.9485346e-01
 -3.0468899e-01
  1.4446770e-01
 -2.6092889e+00
 -5.1775986e-01
 -1.2435660e+00
 -1.3492060e+00
 -1.4419895e-01
 -1.4995058e-01
  8.2981312e-01
 -1.1098908e+00
 -8.0491292e-01
  7.0836812e-01
 -7.0366901e-01
  4.4610864e-01
  8.4612042e-02
  1.5684277e-01
  4.1543937e-01
  7.6014823e-01
 -3.7965530e-01
 -4.7062480e-01
 -2.6523584e-01
  1.8118876e+00
 -9.6287954e-01
  3.1103251e+00
 -3.0909246e-01
  7.7226281e-02
 -3.2311678e+00
 -5.9427120e-02
 -2.6241241e+00
 -2.1582863e+00
 -3.1385994e-01
 -7.0713055e-01
  1.7795141e+00
  5.0930828e-01
 -6.7025161e-01
 -1.6045451e+00
  1.8343523e+00
  1.4827055e+00
  4.2615461e-01
  9.3309629e-01
  1.6144574e+00
 -1.5470228e+00
  5.0283968e-01
 -4.8623939e+00
  1.4251648e+00
 -1.8621173e+00
 -1.4297632e+00
  2.3502338e+00
  1.6988939e+00
 -3.6269510e-01
 -4.8732296e-01
  4.6375246e+00
 -1.9100488e+00
 -1.7752011e+00
  3.6824224e+00
 -1.1999143e+00
  1.7532785e+00
 -4.6312192e-01
 -4.2969089e+00
  3.5335946e-01
  4.1039524e+00
 -1.6074843e+00
 -3.6993602e-01
 -3.4754643e+00
 -5.6731558e-01
 -1.1030890e-01
  1.7872379e+00
  3.6256561e-01
  4.1409856e-01
  1.9989455e+00
 -1.0842347e+00
  1.8960658e+00
  2.1574845e+00
  7.4145365e-01
  1.3446996e+00
 -1.3878161e+00
  2.7796423e-01
  1.0407544e-01
  5.7151598e-01
  4.1582781e-01
 -7.5678355e-01
 -2.1067117e-01
  6.7664164e-01
  3.9042717e-01
  2.6065576e-01
  1.8495068e-02
 -2.0551810e-01
 -4.5683962e-01
 -2.2781503e-01
  1.4191693e-01
  6.7806619e-01
 -4.9806160e-01
 -1.4607641e-01
  6.8151981e-02
 -5.7162148e-01
  3.0615556e-01
 -8.7908678e-02
 -5.6441933e-01
 -4.0849549e-01
  4.2527997e-01
 -7.5405639e-01
 -1.5575102e-01
  6.5677410e-01
  1.7348336e-01
  8.1762081e-01
  2.7395466e-01
  1.3789988e-01
  4.1007768e-02
  1.9695969e-01
 -2.5171131e-01
 -3.5248908e-01
 -5.2633184e-01
 -1.7059259e-01
 -7.2417371e-02
 -1.4668882e-01
  3.0945653e-01
 -3.2638478e-01
 -1.9001274e-01
  1.1217030e+00
  1.7853755e-01
 -3.7251836e-01
 -8.1598490e-02
  5.8605212e-01
  1.7933728e-01
  1.8353242e-02
  3.0853027e-01
 -5.1763028e-01
 -2.1171403e-01
 -5.2227342e-01
  1.5927362e-01
 -1.2540694e-01
  5.9159839e-01
 -8.5980046e-01
  4.4571069e-01
 -5.7057327e-01
  1.3054956e-01
 -6.7499496e-02
  1.5232338e-01
 -7.3435858e-02
 -7.9490167e-01
 -3.8373795e-01
 -4.6996817e-01
  1.1309797e-01
  4.7298826e-02
  2.8007501e-01
 -1.0798915e-01
  3.5746598e-01
 -3.0785367e-01
 -2.2595176e-01
  3.4136927e-01
 -9.4461638e-01
  4.7136360e-01
 -4.3199772e-01
 -1.0426467e-01
 -1.0868198e-01
  1.0867420e+00
 -1.1165020e-01
  1.3571537e-01
 -1.0922425e-01
 -2.1579705e-01
 -5.0798655e-01
  3.8722222e+00
 -6.7532283e-01
  4.5070806e-01
 -4.4694009e-01
 -1.0661967e+00
  8.6674607e-01
 -2.2882834e-01
 -7.8706491e-01
 -3.9463079e-01
 -4.2638454e-01
 -2.4759519e-01
 -1.4825742e-01
 -7.5304246e-01
  1.2293784e-01
  7.3885870e-01
  8.1612766e-01
 -5.0766820e-01
 -2.0236146e-01
  1.5637724e-01
 -1.0729792e+00
 -1.1358920e+00
 -1.1208426e+00
 -1.6632539e-01
 -6.9257247e-01
 -1.1506374e+00
  6.7216563e-01
 -1.8833363e-01
 -2.3015876e-01
  3.5346162e-01
  7.5404668e-01
 -8.3558641e-02
  6.2186974e-01
 -1.2557329e-01
  8.7626493e-01
 -1.0011191e+00
 -5.5566412e-01
 -1.0458430e+00
 -8.8269450e-02
  9.9602193e-01
  4.1711688e-01
 -4.3382221e-01
 -6.3133009e-02
 -1.4588683e+00
 -4.6214718e-01
 -5.0929552e-01
 -8.7975121e-01
  2.8517061e-01
 -7.6372063e-01
  2.5301757e-01
 -1.9825739e-01
 -3.9751500e-01
 -6.8560147e-01
  8.0930126e-01
  1.6815145e+00
  2.3779190e-01
 -3.0971453e-01
  2.5702858e-01
  2.6763403e-01
 -4.2250490e-01
  8.4355801e-02
  3.6005718e-01
 -8.8643295e-01
 -4.2592233e-01
  6.2640107e-01
  1.4591379e-01
 -8.5376412e-02
 -2.9484369e-02
  1.3126069e-01
 -1.4534974e-01
  1.1107692e-01
 -4.7688815e-01
  6.0529780e-02
 -2.8125444e-01
 -1.5689737e-01
  3.2146639e-01
  1.7932786e-01
 -1.7053510e-01
  3.2500662e-02
 -1.2807548e-03
 -4.4447443e-01
 -7.2012246e-01
  8.0416217e-02
  8.3837485e-01
  3.3764619e-01
 -4.2920911e-01
 -2.3870879e-01
 -3.1860083e-02
 -2.9353052e-01
 -7.6560237e-02
  1.8824801e-01
 -5.4056346e-01
 -7.4571542e-02
 -6.8587792e-01
 -2.7124459e-01
 -2.6631004e-01
 -5.3950500e-02
  5.1631796e-01
  3.1572941e-01
  4.6165639e-01
 -2.4768022e-01
 -5.9652698e-01
  7.6041681e-01
  3.0724472e-01
  4.4116944e-01
 -3.5783780e-01
  3.8288155e-01
 -1.0882746e-01
 -2.0489803e-01
  7.9940498e-01
  6.0764130e-02
  7.9118144e-03
 -7.1543694e-02
 -2.0350054e-01
 -1.6651519e-02
 -1.9487901e-01
  7.1768403e-02
 -6.4839190e-01
  1.6668144e-01
  4.4052678e-01
 -5.7084209e-01
 -1.0881528e-01
 -3.0667171e-01
  7.8768343e-01
  2.0702285e-01
  1.7133278e-01
 -5.3360450e-01
  2.8533277e-01
 -1.8909885e-01
  5.3272498e-01
 -7.8956401e-01
 -5.9916806e-01
 -5.8520889e-01
 -1.7448171e+00
 -7.7103382e-01
  1.4719799e+00
 -1.0115244e+00
  9.2903924e-01
 -2.8671489e+00
 -7.4015570e-01
  1.0304797e-02
 -1.0059886e+00
  5.3871489e-01
  1.0923438e-02
 -3.3985198e-01
 -1.4021036e-01
  1.9692154e+00
  2.0806900e-01
  2.1945367e+00
 -1.1159965e+00
 -4.1632193e-01
 -1.3826628e+00
 -7.9923213e-02
 -1.4424350e+00
  7.6265186e-01
  1.6182777e+00
  3.9319041e-01
 -2.8928010e+00
 -1.9813416e+00
 -1.5082809e+00
  5.4417443e-01
  8.9415044e-01
 -5.5487776e-01
 -1.3916889e+00
  1.0602573e+00
  9.5309877e-01
  6.3621539e-01
  1.3515915e+00
 -3.3872666e+00
 -4.0802360e-01
 -8.3241445e-01
  5.6069893e-01
  4.3396133e-01
 -1.0470665e+00
 -1.6100985e+00
 -2.9496250e-01
 -7.0408136e-01
  9.5067084e-02
 -1.2957652e+00
  8.4675360e-01
 -1.6539734e-02
  9.0281636e-01
  1.9787347e-01
 -1.1198286e+00
  9.5289069e-01
 -1.6502851e-01
  3.7461615e-01
  1.8831948e-03
  2.7800432e-01
 -5.1305246e-01
  7.2472656e-01
  8.9625947e-02
  4.9006201e-02
 -1.7508541e-01
  1.7893758e-01
 -2.3536460e-01
 -9.5105392e-01
 -8.6358583e-01
  7.2014266e-01
 -4.6238670e-01
  4.6033710e-02
  6.3082510e-01
  6.3248879e-01
 -1.2747632e+00
  3.0889899e-01
 -2.5484756e-01
 -8.8781402e-02
  7.0487157e-02
 -6.9291949e-01
 -1.9961707e-01
  1.7959760e-01
 -1.4399347e-01
 -1.7524281e-01
  3.3342916e-01
  1.6869698e-01
  5.0038999e-01
  3.2652780e-01
 -2.3828915e-01
 -1.7126758e-02
 -6.8181366e-01
  6.3692945e-01
 -1.6356710e-01
 -1.4026017e+00
 -8.2786670e-03
  4.1470122e-01
 -1.9696288e-01
 -9.2250556e-02
  1.3932237e-01
  1.1041280e+00
 -5.3295511e-01
  7.6890177e-01
 -3.1264565e+00
 -2.7699977e-01
  1.4616957e+00
  6.8760258e-01
 -2.1745577e-01
  1.6290680e-01
  2.1149997e-01
 -2.5554642e-01
  3.2173538e-01
  3.5290111e-02
 -6.8135601e-01
  7.3627335e-01
  5.2085352e-01
  3.0974364e-01
 -4.7922337e-01
  6.2008452e-01
  9.4240673e-02
  5.8005899e-01
 -4.4935554e-02
 -1.5634602e-01
  2.3874539e-01
 -5.2272074e-02
  6.2309951e-04
  3.1383857e-03
 -7.0135146e-01
  4.7965950e-01
  8.7981611e-02
 -2.1083020e-02
  5.4673564e-01
  5.5687439e-01
  6.1774516e-01
  3.6417395e-01
 -2.7009543e-02
  6.3905406e-01
 -7.8310978e-01
  3.2269070e-01
 -2.2332205e-01
 -3.5876334e-01
  4.7559825e-01
 -3.3262882e-01
  6.0421699e-01
 -6.2396720e-02
 -2.2617778e-01
 -3.7982509e-01
 -1.4018360e-01
 -1.3437572e-01
 -4.6082684e-01
  2.2678395e-01
 -5.8094269e-01
  1.2238942e-02
  3.9114091e-01
 -1.0044266e-01
 -1.3005494e-01
 -2.0164345e-01
 -7.6774073e-01
  3.2334617e-01
 -7.4623287e-01
  5.8946794e-01
  5.2623117e-01
  4.9311763e-01
  3.1256515e-01
 -7.2689295e-01
  3.6767725e-02
 -4.7384855e-01
 -1.2756109e-01
  5.1601005e-01
 -4.3508750e-01
  1.1370058e-01
  3.8530207e-01
  3.1062324e-02
  2.6718488e-01
  1.1904375e-01
  7.8343070e-01
 -3.2660994e-01
  1.6008331e-02
  1.6209681e-01
 -3.4631282e-01
  3.5715511e-01
  3.3479497e-01
  1.7550002e-01
 -2.4574572e-01
  2.3108336e-01
 -1.1435596e+00
  1.9953312e-01
 -3.8039440e-01
 -1.0918724e-01
  9.5047992e-01
 -2.9578894e-01
  2.3943922e-01
 -1.8314544e-02
 -1.1377594e-01
 -9.9581070e-02
  5.6485951e-01
 -1.5561788e-01
  4.3723327e-01
 -4.6298150e-02
 -8.2251988e-02
  4.1848600e-01
  4.5506346e-01
  3.8722731e-02
  2.9248363e-01
 -4.5904019e-01
 -7.8784472e-01
  6.1692560e-01
 -3.3072248e-02
  5.4976064e-01
  4.9465430e-01
 -6.7717880e-01
 -7.0140623e-03
 -9.9349099e-01
 -9.8156703e-01
 -5.7067096e-01
  3.4581527e-01
  9.8773843e-01
 -5.0521064e-01
  2.4467928e-02
 -6.5923393e-02
 -2.2001776e-01
 -3.3816850e-01
 -9.5975265e-02
  3.0308334e-02
 -1.8057209e-02
 -8.4839441e-02
  7.9430228e-01
 -3.9320990e-02
  6.8683833e-01
  4.7682893e-01
  2.0319763e-01
 -6.0696197e-01
  3.8881332e-01
 -3.6105290e-01
 -5.2046502e-01
 -2.1971710e-01
  1.7130013e-01
  9.1599238e-01
 -9.9078155e-01
  1.1387725e-01
  6.5483749e-01
 -5.1337487e-01
 -6.7422718e-01
  1.3397278e-01
  1.9912440e-01
 -3.2297131e-01
  2.4594218e-01
 -3.5578024e-01
  4.6302694e-01
  1.0680124e-01
  1.3902895e-01
 -2.1084060e-01
  3.1778136e-01
  3.9241058e-01
  3.0581078e-01
 -1.0656634e-01
  3.7872803e-01
  3.9330747e-02
  2.1676457e-01
 -9.2797738e-01
 -1.1469634e-01
 -6.6231973e-02
  3.8644212e-01
 -6.0816193e-01
 -1.4792381e-01
  3.9288583e-01
  3.8560212e-01
 -2.0121445e-01
 -4.7718397e-01
  6.8776212e-03
  6.5380260e-02
 -6.4358167e-02
 -4.6833155e-01
  2.3539263e-01
 -3.8833657e-01
  1.4711751e-01
  7.3169470e-01
 -2.5242350e-01
  4.4739428e-01
  3.4874716e-01
  2.2793755e-02
  3.4285566e-01
  5.2541763e-01
  1.3011682e-01
 -7.5660920e-01
  4.9681699e-01
  1.6000761e-01
  1.0794271e-02
  5.2634156e-01
  6.2899345e-01
 -5.5503756e-01
 -3.8079184e-02
  4.5864701e-01
 -6.7443591e-01
 -7.5376824e-02
 -2.5654696e-03
  3.0111915e-01
 -3.5388328e-02
  2.1352294e-01
 -1.3518117e-01
 -3.3533874e-01
  1.0573452e-02
 -6.6008024e-02
 -8.6598903e-01
  1.1050142e+00
  3.7935248e-01
 -1.0365226e+00
  3.5754284e-01
  2.5824693e-01
 -1.7826301e-01
  1.8712272e-01
 -6.3176388e-01
  3.9023179e-01
  1.6863550e-01
 -9.6246861e-03
  3.0306650e-02
  8.2660895e-03
 -4.6670142e-01
  4.1694543e-01
 -4.0918618e-01
 -4.0421063e-01
 -4.1061690e-01
  1.1800463e-01
 -3.4837192e-01
 -1.5865988e-01
  7.0383435e-01
 -5.2176589e-01
  1.3408372e-01
 -1.1706708e-01
 -6.4501256e-01
 -4.2185236e-02
  5.0316697e-01
  3.4714237e-01
 -1.8806067e-01
  2.8887954e-01
 -3.8066279e-02
  6.6541302e-01
  5.5625939e-01
 -3.0985457e-01
  3.2034597e-01
  2.1750736e-01
 -2.0802875e-01
 -1.9354573e-01
  3.0684811e-01
  1.8429907e-01
  9.5565480e-01
 -2.3156027e-01
 -4.0598756e-01
 -8.7288305e-02
 -6.0959470e-01
  3.3217424e-01
 -3.2820597e-01
 -1.2967631e-01
  4.1615796e-01
  6.6825628e-01
 -3.1787238e-01
 -7.1009018e-02
 -1.7510018e-01
  3.7642810e-01
 -8.8799849e-02
 -7.4955076e-04
  2.1783739e-01
 -4.3318522e-01
 -7.1278661e-01
 -1.7246905e-01
 -1.2956473e-01
 -1.5356603e-02
 -1.1765499e-02
  2.7023456e-01
 -1.5572309e-01
 -4.2516017e-01
 -7.7119058e-01
 -3.0974014e-02
  3.8447395e-01
  2.7619120e-01
 -5.8180042e-02
 -5.8177918e-01
  9.0012357e-02
  6.9590372e-01
 -3.4709877e-01
  2.0312551e-02
  3.4618080e-01
 -2.2337003e-01
 -1.3782555e-01
 -2.1361300e-01
  1.0049379e-01
  3.6380774e-01
 -1.7444827e-02
  4.6946329e-01
  1.9720149e-01
  5.7912433e-01
 -1.5207094e-01
  5.1871794e-01
  8.2598321e-02
  6.7970222e-01
 -1.4597355e-01
  1.7827243e-01
  2.9821521e-01
 -6.1363935e-02
  5.1626903e-01
  9.0667933e-02
  9.1212779e-01
 -2.4206042e-03
 -5.8619652e-02
  9.6059966e-01
 -2.3690829e-01
 -5.9839588e-01
  7.1788549e-01
 -7.9611540e-02
  5.5344075e-01
  1.0351821e-01
  2.2987470e-01
 -2.3019744e-01
  5.2768826e-02
 -2.3022886e-01
 -1.8536556e-01
 -6.4507151e-01
  1.0961735e-01
  4.3691680e-02
 -6.3186479e-01
  1.6363783e-01
  1.0223468e-01
  1.9870819e-01
 -3.2762823e-01
  2.1751449e-02
  8.1620179e-02
 -1.9543450e-01
 -1.1513865e-01
 -1.4266687e-02
  4.4120198e-01
 -1.8781580e-01
  3.1756717e-01
 -3.7833586e-01
 -4.8593037e-02
  3.6357987e-01
  3.0480490e+00
 -3.0651283e-01
  5.7215810e-01
 -4.7373304e-01
  2.4033615e-01
 -2.2360663e-01
 -5.3970140e-01
  1.3826489e-01
 -3.4235626e-02
  9.1337204e-01
 -1.3893254e-01
 -2.5429916e-01
 -6.4553452e-01
 -2.8243250e-01
  3.4884855e-01
 -1.3472922e-01
  7.3669769e-02
 -7.6924288e-01
  4.5768076e-01
 -2.2841011e-01
 -3.2146585e-01
  1.4192048e-01
  5.1809782e-01
  1.6465160e-01
 -5.5788970e-01
  4.8032334e-01
  3.8227329e-01
  2.5386417e-01
 -7.0016640e-01
  2.3429981e-01
  1.4578027e-01
 -2.1695213e-01
 -2.0274723e-01
  2.5662592e-01
 -3.7253609e-01
  1.8959779e-02
  9.0233284e-01
 -3.4679267e-01
  4.1737995e-01
 -3.9745590e-01
 -4.0548050e-01
 -1.4975534e-01
 -3.8076341e-01
  2.3866524e-01
  1.0953231e-01
 -4.1909176e-01
  2.0750965e-01
  1.3210662e-01
  6.0292500e-01
  1.3439438e-01
  3.0138153e-01
 -2.4777298e-01
 -3.5226461e-01
  2.3310103e-01
 -4.8161083e-01
 -9.2885308e-02
  2.2367746e-01
  5.6347620e-01
 -6.6884108e-02
  2.0481685e-01
  6.6152894e-01
 -4.8866436e-01
  2.0751986e-01
  6.3434243e-03
 -3.9772961e-01
  3.5911298e-01
  4.5051154e-01
  9.9256629e-01
  5.4253384e-02
 -2.8998533e-01
 -3.8078925e-01
  3.8809267e-01
  4.8537642e-01
  6.4305681e-01
 -9.2157871e-01
 -1.3407148e-01
  4.4372048e-02
  7.1070671e-01
 -3.0532536e-01
  1.5900587e-01
 -3.3108833e-01
 -1.1147229e-01
 -1.6217220e-01
  7.0011729e-01
  4.6949759e-01
  5.9116006e-01
  9.3254685e-01
 -6.9396532e-01
 -1.9076358e-01
  3.3340794e-01
 -7.5046368e-02
 -3.0857369e-01
  3.2730469e-01
  9.3724258e-02
  2.2905608e-01
 -1.7439125e-01
  3.5656667e-01
 -1.2612934e-01
  4.3461180e-01
  6.3106775e-01
 -4.6053675e-01
 -2.9317603e-01
 -6.1009818e-01
 -4.9510118e-01
 -2.6032412e-01
 -3.4271231e-01
 -3.6551338e-01
  1.3208003e+00
 -1.6363481e-01
  1.7867661e-01
  1.1608653e-01
 -6.9125944e-01
  8.4906176e-02
 -2.7537245e-01
 -5.5226338e-01
  3.6322802e-01
  7.2952378e-01
 -6.0332322e-01
  2.3420511e-01
 -9.8195143e-02
  1.6847885e-01
 -9.4512135e-01
  4.7327776e-02
  2.6885560e-01
  2.9298186e-01
 -2.7006432e-02
  7.3199248e-01
  4.1459000e-01
  5.1596254e-01
 -1.8205526e-01
 -6.1548054e-01
 -2.3764221e-02
 -8.1092566e-02
 -4.3393505e-01
  1.1233842e-01
 -4.4327968e-01
 -1.6591945e-01
  4.2026806e-01
  2.0370317e-01
 -1.4539899e-01
  2.3950024e-01
 -1.3271140e-01
 -7.3090214e-03
 -5.0732970e-01
  5.9099123e-02
 -3.5430515e-01
 -3.5665697e-01
  4.4141135e-01
  6.3538903e-01
  2.3910679e-01
  1.8245736e-01
 -6.1238158e-02
  2.0385468e-01
 -2.0300323e-01
  5.8876812e-01
  2.1586740e-01
 -3.7863541e-01
 -8.6375326e-02
  6.7880064e-01
  2.3927033e-01
  2.3188260e-01
 -4.6817064e-02
 -2.6871413e-03
  2.8248438e-01
 -8.7410338e-02
 -4.7846653e-02
  8.6075962e-02
  4.4482255e-01
  3.4693992e-01
  8.9553349e-02
  8.3558273e-01
 -2.5300679e-01
  6.1088490e-01
 -4.3098852e-01
  3.3532113e-01
  8.5093492e-01
 -4.5319647e-04
  9.4006471e-02
  8.8182038e-01
 -2.4248583e-02
  1.1099263e-01
 -2.2988904e-01
  6.0058273e-03
  1.6629493e-01
  5.6712198e-01
  5.7341737e-01
 -5.7696235e-01
  5.1578027e-01
 -4.2172813e-01
 -3.5568625e-02
 -4.6520171e-01
  2.2608042e-01
 -5.8816537e-02
 -1.7691681e-01
  3.4076187e-01
 -4.1461217e-01
 -1.4730997e-01
 -1.1244050e-02
 -1.8281743e-01
  4.0840411e-01
 -9.2800260e-02
  5.2718180e-01
  4.8560622e-01
  2.7129719e-01
  5.7670140e-01
 -3.3889371e-01
  4.7870603e-01
 -1.5926242e-01
  2.9856530e-01
 -4.2799407e-01
  6.8521959e-01
  1.3786872e-01
 -1.9352147e-01
 -1.7797905e-03
  2.9104495e-01
 -6.0561672e-03
 -2.0181106e-01
 -9.1200888e-01
  1.2850349e-01
  2.4573724e-01
 -1.7433368e-01
  3.6035123e-01
  4.1547796e-01
  8.7831718e-01
 -5.4416192e-01
 -4.2873228e-01
  6.9984156e-01
  9.6888632e-02
 -4.6074951e-01
 -7.6505572e-02
 -1.6425185e-01
 -2.2873782e-01
  4.8979908e-01
 -8.7055266e-01
 -3.6491370e-01
  1.1724592e-01
 -8.8236666e-01
 -1.9087628e-01
  8.0874211e-01
 -4.1158760e-01
  1.4696065e+00
  1.8293269e+00
 -5.0507812e+00
  1.0663673e+00
  4.9632055e-01
 -5.6105947e-01
 -5.4097301e-01
  1.4745616e+00
 -7.1350741e-01
 -2.6883650e+00
  5.8859444e-01
 -1.7334487e+00
  7.8304982e-01
 -2.5151458e-01
 -2.0283926e+00
 -1.0243133e+00
 -7.1280402e-01
 -8.3030480e-01
  1.6377536e+00
 -1.5161875e-01
  7.1305506e-02
 -2.3322470e-01
 -2.7338147e-01
 -3.3826751e-01
  3.1791949e-01
  1.8753357e-01
 -1.6377819e+00
 -1.9182673e-01
  1.4214917e+00
  4.9688265e-01
 -3.5462546e-01
 -1.2026801e+00
 -2.2590796e-02
  4.2043597e-01
  1.5139686e-01
 -4.6783984e-01
 -3.8850614e-01
  1.7545497e+00
  1.8666157e+00
 -8.8166559e-01
 -6.7695808e-01
 -5.3295606e-01
 -7.9102302e-03
 -1.0603552e+00
  5.7351869e-01
 -6.2380421e-01
 -1.4464779e+00
 -1.3040353e+00
  8.2972951e-02
  2.2631404e+00
  3.2052720e-01
 -7.1576327e-01
 -2.8589773e-01
 -1.1398809e+00
 -1.2626357e-01
  3.4112611e-01
  2.5777313e-01
  6.2418205e-01
 -4.0319273e-01
 -1.0751765e-01
  2.1348783e-01
  5.4358566e-01
 -2.8270096e-01
  4.5232657e-01
 -4.4474015e-01
 -6.9636151e-02
  1.4193988e-01
 -6.9420826e-01
 -3.2714966e-01
  7.1701914e-02
 -8.2766414e-01
  2.3854171e-01
 -1.5336685e-01
  6.7464668e-01
  3.9335290e-01
 -1.4451936e-01
 -6.4614987e-01
  1.2353325e-01
  2.9591498e-01
 -4.4717222e-02
 -7.9026932e-01
 -3.4370431e-01
  4.4136056e-01
 -3.2512897e-01
 -2.0389587e-01
  5.7239598e-01
 -2.6165637e-01
 -1.6832523e-02
  5.1365815e-02
 -1.0532159e+00
  5.3887463e-01
 -2.3514235e-01
  1.3934767e-01
 -1.6000736e-01
  2.8045461e-01
  3.6002284e-01
  5.9627336e-01
 -2.5483641e-01
 -1.1543127e+00
  5.0103951e-01
  3.7622452e-01
  1.8232208e-01
  6.6242206e-01
 -4.2587802e-01
  1.2133944e+00
 -7.4966908e-02
 -2.2359028e-01
 -6.9821775e-01
  3.3355725e-01
 -1.1884611e+00
  5.9211242e-01
  9.0332560e-02
 -4.8719324e-02
 -5.2736804e-02
  1.5911248e-01
 -1.6249990e-01
  8.8148785e-01
 -2.6766825e-01
  5.0946152e-01
  1.0529982e+00
  5.7969578e-02
  7.3708318e-02
 -1.9578179e-02
  1.2589896e-01
  1.2285402e-01
 -6.6064513e-01
  1.7648812e-01
 -4.9914837e-01
  2.0217429e-01
  2.8848511e-01
  7.2536254e-01
 -7.0885405e-02
 -3.3643046e-01
  1.1045411e-01
  2.9862633e-01
 -1.0491661e-01
  8.9811468e-01
  1.3903767e-02
 -3.2154357e-01
  3.9731076e-01
  3.1052938e-01
 -3.8143802e-01
  2.4097601e-01
  5.7574224e-01
  9.6848823e-02
 -3.7496653e-01
  9.1749483e-01
 -2.7735066e-01
 -3.5943425e-01
  7.0443951e-02
  2.0990947e-01
  1.7930214e-01
 -3.3432463e-01
 -1.6781131e-02
 -6.9833368e-01
  1.0732485e+00
  4.3352297e-01
  1.2631318e-01
  4.0670234e-01
 -1.6588260e-01
  2.6569957e-01
  5.8393770e-01
 -7.0398534e-03
 -1.3163193e-02
  7.4517429e-02
  7.0225763e-01
  4.0482733e-01
  3.3889055e-01
 -2.3995207e-01
  1.9735888e-01
 -4.9647632e-01
 -2.0028588e-01
 -3.1980780e-01
  1.9798993e-01
  5.1308376e-01
 -3.0134928e-01
  6.6152334e-02
  2.4659646e-01
  1.2500014e-02
 -1.1052503e-01
  2.4752289e-01
  3.0013397e-03
 -1.7443636e-01
  4.1684633e-01
  1.9603728e-01
 -1.0675877e-02
  1.3510275e-01
  3.4733975e-01
  4.0831226e-01
  4.2783264e-02
 -5.2145308e-01
  4.3412492e-01
  1.0040841e-01
 -6.2541187e-01
 -3.2147303e-02
  3.6801070e-01
 -1.7707071e-01
  2.1413645e-01
 -1.1992157e-03
 -2.6019585e-01
  3.2335299e-01
  2.2677813e-01
 -4.0509397e-01
  1.1356990e-01
  2.6991954e-01
 -6.1424351e-01
 -1.3218252e-01
 -6.0547248e-02
  1.2891859e-01
  5.8857083e-01
 -6.8390921e-02
 -1.3253050e-01
  3.6555338e-01
  7.2904408e-02
 -2.9869601e-01
 -5.1404452e-01
  1.5892495e-01
 -8.6032022e-03
  2.3755738e-01
 -1.4339072e+00
 -7.4801487e-01
  3.2442892e-01
  2.5063139e-01
 -9.7895578e-02
 -5.9070401e-02
 -4.1650277e-01
 -4.4541326e-01
 -3.0350951e-02
  2.1732117e-01
  2.1439941e-01
  4.4355029e-01
  1.9199818e-01
 -3.0584189e-01
  4.4917516e-02
 -1.8618914e+00
 -2.0353799e-01
 -4.9014038e-01
  5.8096963e-01
  3.5292718e-01
  3.7494019e-01
  3.4865549e-01
  1.1706537e+00
 -2.4276274e-01
  6.5340616e-02
  3.6238530e-01
  3.0664986e-01
 -2.0489778e-01
 -2.2527382e-02
 -4.1259938e-01
  2.4940518e-01
  2.2354119e-02
  4.4215938e-01
  4.0476844e-01
 -2.5114256e-01
  9.7048886e-02
 -6.1726844e-01
  6.1570859e-01
 -3.0724004e-01
  3.0149505e-01
  3.4605777e-01
 -2.3237656e-01
  2.6083557e-02
  2.1712723e-01
  1.5070453e-01
  6.2983856e-02
 -9.1416097e-01
 -5.7855797e-01
 -1.2533948e+00
 -1.1720427e+00
 -6.5458518e-01
 -1.0011061e-01
  2.4334974e+00
  1.2016054e+00
 -3.2745869e+00
 -4.1346666e-01
  9.5804060e-01
 -1.3715765e+00
 -7.3456722e-01
 -3.1783688e-01
 -5.1576950e-02
  1.0194557e+00
  2.0677803e+00
 -2.3360693e-01
  2.8809698e+00
 -8.6309248e-01
 -1.3973813e+00
  4.1643909e-01
 -1.3925037e+00
 -6.3017482e-01
  5.6446201e-01
 -1.1964593e+00
 -2.2192852e-01
  2.0687287e-01
  2.1696954e+00
 -4.7009212e-01
 -1.2674855e-01
  6.0356915e-01
 -3.7669704e+00
  1.1937426e+00
  7.9779252e-02
 -1.7155297e+00
 -1.2418360e+00
  3.4705474e+00
  4.2125082e+00
 -3.6927903e-01
  1.5352761e+00
  1.1769278e+00
  1.4395345e+00
  8.4308136e-01
  1.2107601e+00
  4.5811018e-01
 -1.4441755e+00
  4.3246245e-01
  9.5248753e-01
  8.2170367e-02
 -1.1332374e+00
  7.1117848e-01
 -1.7544879e-01
 -4.4581103e-01
 -1.8217715e-03
 -1.0000563e+00
 -5.8724755e-01
  6.2109369e-01
 -1.6858222e-01
 -1.7679083e-01
  2.7508438e-02
 -5.3075963e-01
 -6.7631179e-01
 -9.2702055e-01
  2.3928609e-01
 -3.0606091e-01
  1.2604314e-01
 -2.0446350e-01
  4.7738049e-02
 -3.3503401e-01
  1.8504818e-01
 -2.3811716e-01
 -4.9206817e-01
 -2.9686680e-01
 -4.1211617e-01
  9.4980896e-02
 -8.4160298e-02
  9.5599331e-03
  4.2720416e-01
 -4.6493012e-01
 -5.4096025e-01
 -1.4394695e-01
 -3.1124383e-01
  6.1319321e-02
  1.1390845e-01
  9.7498119e-02
 -2.8339937e-01
  1.6514334e-01
 -6.7324543e-01
 -7.2458500e-01
 -4.7865454e-02
  8.0154896e-02
 -3.9605718e-02
  7.9726893e-01
 -1.0524121e-01
  5.7218927e-01
 -1.3792448e-01
  4.0589887e-01
 -2.9358050e-01
 -1.4983459e-01
 -5.4787284e-01
  1.3068855e-01
  1.8938233e-01
 -1.5821318e-01
 -8.9725800e-02
 -2.7198404e-01
 -3.0634362e-01
 -1.6414601e-01
 -1.0485157e-01
 -1.4275476e-01
 -1.0024340e-01
 -1.7312697e-01
  3.7671593e-01
 -2.5513905e-01
  8.1745648e-01
  2.2837146e-01
 -1.5555018e-01
 -5.9694916e-02
 -4.9159024e-02
  2.1886876e-01
 -7.1277517e-01
 -2.4032161e-01
 -5.0556546e-01
 -2.4447685e-01
 -3.8669756e-01
  1.6074854e+00
 -2.8665328e-01
  1.6465272e-01
 -2.4616149e-01
 -1.8487994e-01
 -2.8450185e-01
 -4.9284491e-01
 -5.6455636e-01
  5.6880081e-01
 -5.1173747e-01
  1.3234465e+00
  9.3169099e-01
 -4.6163657e-01
 -3.4962153e-01
 -1.0698452e+00
  8.1357497e-01
  1.1179971e+00
 -1.7771866e+00
  3.0716771e-01
  1.0903691e+00
  7.6342690e-01
  2.0513034e+00
 -9.0101469e-01
  5.6972396e-01
  4.9267292e-01
 -3.4745619e-01
 -7.5953615e-01
 -1.1534655e+00
  1.2240134e+00
 -3.2737294e-01
  5.0954270e-01
 -1.1536465e-01
  4.5920351e-01
 -1.1812087e+00
 -1.3873940e+00
 -1.1975651e+00
  5.0509840e-01
 -4.2819077e-01
 -8.7144536e-01
 -1.2974190e+00
 -1.2767318e+00
 -1.0548451e+00
  1.3208342e-01
  3.4766676e+00
  5.4458493e-01
  3.4807332e+00
 -7.4509388e-01
  4.0919286e-01
 -1.2470071e-01
  3.9350185e-01
 -1.0991188e+00
  8.2800364e-01
 -1.9188448e+00
  1.6115140e+00
  2.0329413e-01
 -1.5763025e+00
 -3.7005460e-01
  3.4883410e-01
 -1.3123088e+00
 -1.2430716e+00
 -1.2450121e-01
 -6.7798659e-02
 -2.7621400e-01
 -3.1674221e-01
 -1.0435889e+00
  6.7021623e-03
 -3.8449088e-01
  7.0809829e-01
  1.5651208e-01
 -3.5529175e-01
 -1.0479488e-01
 -4.1303891e-01
 -5.0578243e-01
  2.6696342e-01
  4.0257238e-02
 -3.0454645e-01
  4.5034978e-01
  2.4180789e-01
 -4.4637778e-01
  8.8516138e-03
 -1.0205597e+00
 -4.9184497e-02
  4.6002179e-01
  4.5622763e-01
 -4.6168518e-01
 -5.5087134e-02
 -2.7930820e-01
  1.4933661e-01
 -1.1771303e-01
  2.0278203e-01
 -7.8165948e-01
 -6.6161603e-01
  3.8059705e-01
  4.9475275e-02
  6.3817047e-02
 -6.5408832e-01
 -1.8798919e-02
  1.4003903e-01
 -3.0366692e-01
  7.5163156e-02
  5.7909137e-01
  6.3143778e-01
 -1.5766144e-01
  9.9970713e-02
  1.5266158e-02
 -2.5370836e-01
  5.6015126e-02
 -3.2793412e-01
  5.2432299e-02
 -1.1045562e-01
 -7.2768927e-02
  5.2606887e-01
 -8.1717575e-01
 -1.3383621e-01
 -5.2457649e-01
  7.6521531e-02
 -3.7802041e-01
  3.2203543e-01
 -5.6210160e-01
 -2.0729697e-01
 -1.9555338e-01
 -3.8382167e-01
  5.0057191e-01
 -1.5194337e-01
 -1.0993450e-01
 -6.0242283e-01
 -8.8663407e-02
 -2.8878784e-02
 -1.6138312e-01
  1.8868348e-01
 -1.4034763e-01
 -1.9542985e-03
 -2.0268944e-01
 -6.0590386e-01
  8.2910813e-02
  1.1423499e-01
  4.9935147e-02
  2.2318598e-02
  1.3927999e-01
  4.2931330e-01
 -2.9247230e-01
  6.0316825e-01
  2.9402652e-01
 -5.5599600e-02
  1.0878828e+00
  2.9633391e-01
  1.2071335e-01
  5.6949848e-01
 -2.4892063e-01
 -5.6831485e-01
 -2.1233702e-01
  8.2287550e-02
  8.9073247e-01
  5.2864533e-02
 -3.8249391e-01
  3.6816490e-01
  6.1315224e-02
  2.6404232e-01
  1.8541376e-01
  2.5996262e-01
  5.5921108e-01
 -1.0885645e-01
  1.5419656e-01
  5.8109200e-01
 -6.1366987e-01
 -1.2219470e-01
 -2.2765636e-01
  1.8513405e-01
 -4.1644201e-01
 -4.1572526e-01
  1.5983731e-02
 -3.5607117e-01
  9.0566427e-02
 -1.6016083e-02
  6.7441434e-02
 -5.3689891e-01
  4.3397096e-01
  1.3182664e-01
  2.1433769e-01
  1.7920537e-01
 -8.8858896e-01
 -4.2550975e-01
 -4.6400374e-01
 -4.1194996e-01
  4.6743289e-01
  4.5951349e-01
  3.3870789e-01
 -4.4395608e-01
 -3.9127555e-01
  6.2669620e-02
  1.2719631e-03
 -2.9620096e-02
  1.2336104e+00
  7.2579511e-02
  1.0868141e-01
  2.6086819e-01
 -6.9034642e-01
 -2.5979057e-01
  4.2824504e-01
 -2.7009419e-01
 -1.3564771e-01
 -2.5366139e-01
  1.0264748e+00
 -2.1479173e-01
 -7.9882056e-01
 -2.2937603e-01
  2.0103200e-01
 -5.4275697e-01
  1.0231159e-01
  4.2604845e-02
 -5.8799005e-01
  1.5206221e-01
  5.1739085e-01
  3.5727566e-01
 -9.1867441e-01
 -1.1695696e+00
 -4.8596823e-01
 -9.0168230e-02
 -6.4240414e-01
  1.5028583e-01
  1.9430190e-01
  8.1110007e-01
  6.0125959e-01
 -5.0834022e-02
  4.2785314e-01
 -1.9783399e-01
 -6.6244549e-01
  2.3790738e-01
 -8.9189744e-01
  5.3700018e-01
 -5.8367068e-01
  2.8126431e-01
  3.5986626e-01
  9.8107642e-01
  1.3642812e+00
 -7.8853732e-01
 -6.2214583e-01
 -3.5969689e-01
 -4.0059990e-01
 -3.7377605e-01
  8.2452202e-01
 -7.7073401e-01
  1.7911769e-01
 -4.0556431e-01
  2.8548450e+00
 -4.8054752e-01
  1.4792713e+00
 -4.4143122e-01
 -3.2044041e-01
 -6.0450691e-01
  2.9778757e+00
  1.5276927e-01
  2.2639753e-02
  1.9179210e-01
  1.3376133e+00
 -5.2682739e-01
 -8.3169991e-01
 -5.4734367e-01
 -3.7234160e-01
  4.1006032e-02
 -8.3141655e-01
 -1.5856346e-01
 -2.6297760e-01
 -5.8513239e-02
  8.4264761e-01
 -4.5926282e-01
  7.8316011e-02
  5.2382432e-02
  1.9917500e-01
  3.0981902e-02
  2.7983558e-01
 -1.1436847e-01
  4.3714517e-01
 -2.8764468e-01
  6.0910311e-02
 -1.4825034e-01
  2.4967080e-02
  7.9739141e-01
 -6.5866333e-01
 -6.9779944e-01
  4.6987200e-01
 -1.7518763e-01
  2.3636988e-01
 -5.2924719e-02
  2.0012933e-01
 -5.0299561e-01
 -2.2547798e-01
 -8.4269828e-01
 -6.3545384e-02
  1.5848801e-01
 -5.5102003e-01
 -3.7560421e-01
 -3.5623518e-01
  1.8949559e-02
  1.8765962e-01
 -5.8124655e-01
 -1.9105035e-01
  2.2546059e-01
  6.5547717e-01
  2.1736157e-01
  6.9936365e-04
 -2.2078578e-01
 -8.6233360e-01
  1.3319862e+00
  8.5008430e-01
  5.3911024e-01
  7.3200035e-01
  4.7486621e-01
 -2.9720917e-01
 -5.1981181e-01
 -1.4382730e-01
  2.7842551e-01
  6.4046520e-01
 -9.2852712e-02
 -6.8484820e-02
 -6.1034650e-02
 -2.3043942e-01
 -3.5313064e-01
 -1.5049486e-01
  1.4364795e-01
  3.7334210e-01
  1.4809188e-01
 -2.8790924e-01
 -1.8715274e-01
 -1.7852688e-02
 -3.6625391e-01
 -7.7590063e-02
 -5.5069894e-01
 -3.0975410e-01
 -4.0165913e-01
  3.2637966e-01
 -5.7370430e-01
  5.6896985e-01
 -1.8579084e-01
  7.8486282e-01
  3.5601917e-01
  3.5189533e-01
  1.7895706e-01
 -1.6693790e-02
  1.8339019e-01
  4.5905553e-02
  5.4571882e-02
  1.4429726e-02
  9.2146206e-01
 -1.7297657e+00
  2.3054452e+00
  1.3710343e+00
  4.1229329e-01
  6.7677408e-01
  6.3904661e-01
  5.3607839e-01
  1.9088367e-01
  2.2628927e-01
  4.8101035e-01
 -1.2220376e-01
  2.6573229e-01
  4.8261601e-01
 -5.7900113e-01
 -5.8905733e-01
 -1.5599018e-01
 -1.5778565e-01
 -1.7107248e-01
 -1.0928370e+00
 -8.8039589e-01
 -8.4907728e-01
  6.4872301e-01
  3.0904939e-02
 -4.7872877e-01
  7.8467384e-02
 -9.5947367e-01
 -4.8659205e-01
  1.0319959e+00
  1.9345148e+00
  5.4255545e-01
  5.4795927e-01
 -5.9373862e-01
 -2.4612117e+00
 -4.8461766e+00
  1.1346182e+00
  2.3964332e-01
  4.0251665e-02
  4.0692002e-01
 -1.4053389e+00
 -6.1283134e-02
  1.0575669e+00
  1.8532662e+00
  2.1700338e-01
 -1.5554733e+00
  1.6168404e-01
 -8.6525315e-01
  1.7311504e+00
  6.7215025e-01
  4.5018575e-01
  8.3071685e-01
  5.2843928e-01
 -5.8196425e-01
  3.4217227e-01
  4.7544974e-01
 -1.9134508e-01
  7.3191160e-01
  4.0382752e-01
  1.5055913e-01
  2.5651145e-01
  5.8243863e-02
 -1.6891710e+00
  9.1456306e-01
 -2.1255475e-01
  1.2504025e-01
  2.3346868e-01
  6.3966388e-01
  9.6026134e-01
 -6.6411012e-01
  5.0282395e-01
  1.9773617e+00
 -4.3229273e-01
  1.2463061e+00
  1.8165673e+00
  4.1785970e-01
 -1.5151197e+00
  9.5739734e-01
  1.4524710e+00
 -2.1452105e-01
 -6.7201965e-02
 -1.3343160e+00
  9.5027592e-03
  1.4265642e+00
  6.7267865e-01
  2.7068086e+00
  1.1611947e+00
  1.1102521e+00
 -9.8497319e-01
  1.0112591e+00
  1.3161432e+00
 -2.0836160e+00
  1.4996591e-01
  5.8729980e-02
 -2.2130615e-01
 -1.4929736e+00
  2.1803381e-01
  1.6923100e+00
  2.4634523e+00
  2.8595552e+00
 -3.5796326e-01
  2.0347996e+00
 -9.3079579e-01
  5.7926476e-01
  1.3597798e+00
 -7.5964129e-01
  3.3748460e-01
  1.5745776e+00
  3.0343821e+00
 -4.2921820e+00
 -4.0620656e+00
  4.8028699e-01
  9.8644757e-01
  6.0800624e-01
 -4.9504319e-01
  1.0808998e+00
  1.6418363e-01
  4.0522373e-01
  2.2955542e+00
 -5.7282156e-01
 -7.4154848e-01
 -2.1898527e+00
  2.0293500e-01
  3.2849735e-01
  5.1773071e-01
  8.1800461e-01
 -4.5845911e-01
  8.1133950e-01
 -9.3042856e-01
  2.0007072e-01
 -1.0131367e+00
  1.9412634e-01
 -5.1383567e-01
  4.7325903e-01
 -1.6453257e-01
  1.4336629e-01
 -3.3999942e-03
 -1.8169418e-01
 -5.0610192e-02
 -2.2734943e-01
 -2.7628487e-01
 -2.5715688e-01
  5.3677303e-01
  7.4362582e-01
 -4.0893015e-01
 -1.1799143e-01
 -3.2747984e-01
 -9.6507198e-01
  1.0293951e+00
 -6.9781482e-01
  1.3807285e-01
  1.7005974e-01
  1.4083117e-01
  3.1332433e-01
 -2.8094801e-01
 -2.4034378e-01
 -5.4345101e-01
  1.3089094e-01
  8.8495448e-02
  2.6888967e-01
 -5.6837875e-01
 -3.1421307e-02
  1.0578289e+00
 -4.5615461e-01
  7.3228669e-01
  5.2833009e-01
  7.8400350e-01
  5.2250773e-02
 -4.4608989e-01
 -9.3392797e-02
 -3.0973005e-01
 -4.3456981e-01
  9.9507377e-02
 -7.3094356e-01
  5.5779582e-01
  9.0667330e-02
  1.7383400e-01
  1.7527373e-01
  6.8714052e-01
  2.1038249e-01
  2.6088139e-01
 -1.5832177e-01
 -8.0630533e-02
  1.0534703e-01
  3.3633649e-02
  3.1057653e-01
  1.9195297e-01
  8.0339700e-02
 -2.2532322e-01
  2.2467865e-01
 -2.3532268e-01
  2.1082985e-01
  3.6193609e-01
 -5.7542819e-01
 -5.9468037e-01
  4.8027107e-01
  4.6828508e-02
  2.1304873e-01
 -1.6176362e-01
 -2.6039034e-01
 -2.9301375e-01
 -7.0981330e-01
  5.7763612e-01
 -6.7254102e-01
 -3.0217335e-01
 -3.1836849e-01
  1.0786663e+00
 -5.8114123e-01
  2.1859550e-01
 -4.1070020e-01
  4.6840990e-01
 -2.5757787e-01
  1.7364009e-01
  2.8265727e-01
 -1.5852954e-02
 -1.0160376e+00
  4.7498867e-01
  4.9888483e-01
  5.9685493e-01
  4.2607132e-01
 -1.6601686e-01
 -6.1016187e-02
  5.1536304e-01
 -2.4984767e-01
  6.1095339e-01
 -7.2788984e-01
  8.2329094e-02
  4.6915900e-02
  4.0787318e-01
 -8.3779258e-01
  2.6782063e-01
 -6.9619972e-01
 -4.7418889e-01
  2.1375579e-01
 -1.0025610e+00
 -4.1862935e-01
  4.3081343e-01
  7.5500524e-01
  2.1272633e+00
 -5.7437241e-01
  8.0860418e-01
  2.0793846e-01
  1.2087714e-01
  1.2459985e+00
 -2.7326673e-01
 -9.2679083e-01
 -5.9709981e-02
  5.7431358e-01
  1.3714794e+00
  7.7184594e-01
  1.4010527e+00
 -3.3363178e-01
 -2.1975976e-01
 -8.0974791e-03
 -2.0039943e-01
  2.1705402e-02
  4.1861990e-01
  2.5566512e-01
 -7.2576082e-01
 -1.9368131e-01
  4.9080186e-02
  6.3340545e-01
  2.4891993e-01
 -2.3912519e-01
 -3.4838620e-01
 -1.1730328e-02
 -8.7071455e-01
  1.4553303e-01
 -5.3683633e-01
 -1.0496351e-01
  2.8573456e-01
 -1.3768427e-01
 -4.1128215e-01
  2.8786293e-01
 -9.9824399e-02
 -5.9324408e-01
  9.1612712e-02
 -1.8939732e-01
 -7.9231918e-02
 -1.8417585e-01
  5.8525652e-03
  2.5556666e-01
  1.8636733e-01
  3.2394132e-01
  3.2817924e-01
 -1.4766236e-01
 -2.4246193e-01
  4.9226281e-01
  5.8740139e-01
  4.5162323e-01
  5.4668444e-01
 -2.8382838e-01
 -4.0629071e-01
  1.2317647e+00
  5.4092467e-01
 -3.3127241e-02
  1.3986856e-01
  1.0543036e+00
  4.6367764e-01
 -6.9766867e-01
 -3.3794418e-01
  7.9947814e-02
 -5.4941881e-01
 -2.8621912e-01
 -3.6861897e-02
  3.2542536e-01
 -2.2777457e-02
  2.0141837e-01
 -4.5860556e-01
 -2.3045242e-01
  3.2674956e-01
 -4.1305169e-02
  3.5370311e-01
 -5.8420771e-01
 -2.4019480e-03
 -2.4410635e-01
 -2.2571808e-01
 -4.0296143e-01
  3.1424120e-01
  2.3532492e-01
  4.8004724e-02
 -1.0817238e-01
  2.1879865e-02
 -1.7134261e-01
  3.1260222e-01
  5.4851405e-02
  1.7079219e-01
 -2.6999393e-01
  3.3282417e-01
 -2.5208810e-01
  2.1740954e-02
 -2.4087677e-02
  4.0531456e-01
 -9.2194431e-02
 -1.3448393e-01
  4.9296606e-01
  2.1541269e-01
 -5.9795362e-01
 -1.7225374e-01
  4.8665069e-02
 -4.3560299e-01
  5.0872660e-01
  1.7668183e-01
 -5.3632224e-01
  2.7533573e-01
  1.4121284e+00
  3.3189127e-01
  2.4122697e-01
 -2.1263993e-01
 -3.1327558e-01
  1.0894897e-01
 -1.6345522e-01
  1.3184574e-01
  4.3515646e-01
  5.9430137e-02
  2.2059321e-01
 -3.4233007e-01
 -1.0075402e-02
 -8.6172622e-01
  3.7628138e-01
  1.0762203e-01
  6.1186209e-02
  1.3128272e-01
 -4.4428146e-01
 -2.9923472e-01
 -3.0761078e-02
 -5.0421089e-02
 -9.3890369e-01
  5.0356489e-01
 -6.5397018e-01
 -3.3072668e-01
  4.5856062e-01
 -2.1890466e-01
  2.9033822e-01
  3.7851214e-01
 -9.4049728e-01
 -3.2483387e-01
 -9.2417717e-02
 -1.1854507e-01
  9.7123981e-02
  6.2446769e-02
 -9.3182009e-01
 -2.7346039e-01
 -3.2749674e-01
 -3.4789562e-01
  5.2832532e-01
  2.6699373e-01
  4.7173682e-01
 -3.0541325e-01
  3.9186478e-02
  3.6176297e-01
 -1.0275222e-01
  3.3823639e-02
 -1.2384564e-01
  2.9641324e-01
 -5.9913158e-01
  3.6020416e-01
 -3.3308563e-01
  5.6099296e-02
 -2.6585034e-01
  1.6381932e+00
 -1.8335392e-01
 -3.0796587e-01
  1.0163218e+00
 -3.5596363e-02
  3.9848757e-01
 -6.1092705e-01
  1.9529389e-01
  4.4307929e-01
 -2.3958433e-01
  3.2878302e-02
  7.5719245e-02
  2.0801869e-01
  6.2369414e-02
 -2.9964939e-01
  7.3051953e-01
 -2.6406097e-01
 -3.4253633e-01
 -1.2395806e+00
  8.2125276e-02
  8.2732499e-02
 -1.5153758e-01
  8.5538453e-01
 -2.7632710e-01
  1.1354515e-01
 -3.3540475e-01
 -6.3354743e-01
 -2.4360202e-01
 -6.3939309e-01
  1.1235966e-01
  1.4502758e-01
  4.2113423e-01
  7.0848338e-02
 -5.7391673e-01
  4.0419033e-01
  9.4946906e-02
 -4.8884887e-01
  2.6906791e-01
 -3.4259048e-01
 -4.7964859e-01
 -1.2200238e-01
  1.5302867e-01
 -3.8032657e-01
 -1.3315085e-01
 -1.2701985e-01
 -1.0181186e+00
 -2.3718593e-01
  7.4742851e-03
 -2.7463737e-01
 -2.4020822e-01
 -3.9293334e-01
 -1.6537029e-01
 -8.8375223e-01
 -8.9835578e-01
 -1.2532313e-01
 -1.3256444e-01
 -1.1021065e-01
 -4.6389920e-01
 -3.3104595e-02
 -1.1697319e-01
 -2.0574941e-01
 -1.3035232e-01
  1.1828454e-01
 -4.0532440e-01
 -3.5742265e-01
  1.8710271e-05
 -4.0632617e-01
 -5.9303198e-02
  2.8569683e-01
 -3.6783779e-01
  7.0946407e-01
 -1.0193561e+00
 -3.3433247e-01
 -5.3114556e-02
 -6.4178050e-02
 -1.8842204e-01
 -4.3994063e-01
  4.0848753e-01
  3.3816600e-01
 -1.9713658e-01
 -1.4761305e+00
 -1.5184243e-01
  6.0419522e-02
  1.4882580e+00
  1.2809411e-01
  8.8968622e-03
 -4.3561867e-01
 -3.5229525e-01
  5.9230053e-01
  2.2063904e-02
 -3.5141878e+00
 -7.8413626e-03
  6.5409189e-01
  1.7480743e-01
  1.6430511e-01
 -1.6570762e-01
  2.7673706e-01
  3.0648798e-01
  5.4685831e-01
 -1.9561940e-01
  8.3149809e-01
 -1.8020135e-01
 -7.1784258e-01
 -1.6696353e-01
  6.3903183e-01
  6.8726593e-01
 -2.7436748e-01
 -9.9161223e-02
  1.6663301e-01
 -7.3002777e-03
  3.8078070e-01
  3.2000276e-01
 -5.4296213e-01
 -4.4867763e-01
 -4.8117228e-02
  1.0253255e-01
  6.0925156e-01
  1.5425634e-02
 -5.3019851e-01
 -3.3123505e-01
 -2.5263923e-01
 -1.1053367e-01
  2.6306835e-01
  7.6082930e-02
 -5.2925295e-01
 -1.5294515e-01
 -1.4287011e-01
 -2.1363595e-01
  9.7014017e-02
  9.4688155e-02
  6.8834461e-02
  5.9653485e-01
 -4.2513093e-01
  9.5480047e-02
  3.5318038e-01
 -5.1153308e-01
 -2.6212642e-01
  4.8933196e-01
 -1.0273567e+00
 -4.1722104e-01
  1.7155908e-01
  2.5448614e-01
  3.7486559e-01
 -2.6214681e+00
  1.0200965e-01
 -1.5647187e+00
  1.2532055e+00
  1.3287592e+00
  4.8384380e-02
 -7.3210925e-01
  6.0213411e-01
  7.6722747e-01
 -1.0165114e+00
  1.0347342e+00
  4.9872726e-01
  5.9290731e-01
  5.5823918e-02
  1.8959274e+00
  7.8461403e-01
 -7.9950613e-01
  3.2069367e-01
  6.4943217e-02
 -1.1596028e+00
 -2.0523458e+00
 -5.6335235e-01
 -1.7912921e-01
  1.3785166e+00
 -1.3211154e+00
 -7.2316313e-01
  1.7885572e+00
  9.0882367e-01
  4.2079189e-01
 -2.3698428e-01
 -5.5813736e-01
  4.4555545e+00
 -1.6862452e-01
 -5.0646156e-02
  8.5847449e-01
  4.6694249e-01
  5.9278530e-01
 -1.5210696e+00
  1.4225148e-01
 -2.8832260e-01
 -1.3401451e+00
  1.7500103e+00
 -8.3396876e-01
  2.2551647e-01
  1.1725527e-01
  1.1827067e+00
  3.9937299e-01
 -1.3319758e-01
  4.0894684e-01
  4.9371821e-01
 -1.7425302e-01
 -3.5278714e-01
 -2.0684750e-01
  1.9316472e-01
  1.3960425e-03
 -3.1614354e-01
  1.0584856e-01
 -7.1814591e-01
  5.7116479e-01
 -1.0397223e+00
  2.2249922e-01
 -1.7421234e-01
 -2.9601222e-01
  4.7653999e-02
  3.4849238e-01
 -5.4123163e-01
  8.9207247e-02
  3.0737486e-01
 -2.1624979e-01
 -1.0695951e-01
 -4.0885797e-01
 -4.1724971e-01
  2.3442812e-01
  1.9892445e-01
 -4.8647534e-02
 -2.1465221e-01
  3.9133638e-01
  4.6630844e-01
  6.0930306e-01
  2.5974771e-01
  3.4096971e-02
  5.5228275e-01
 -2.8353691e-01
 -5.0768435e-01
  1.1555594e-01
  7.7548808e-01
 -1.4925036e-01
 -3.2327324e-01
 -6.9038320e-01
  1.4115924e-01
 -1.5718392e-01
 -6.6753358e-01
  6.9812965e-04
  6.4548612e-01
  1.6718253e+00
  6.0953230e-02
 -2.7681544e-01
 -2.3645470e-01
 -6.4818770e-02
  3.6090040e-01
 -1.2964982e-01
  2.8470910e-01
  1.0976717e-01
 -5.2064520e-01
  1.7243800e-01
  2.9857546e-02
  3.3139309e-01
  3.6423203e-01
  7.0939147e-01
  9.4761789e-02
  9.5602535e-02
 -8.0103666e-02
  9.0948015e-02
 -2.5668737e-01
 -1.0623693e-01
  2.5283518e-01
  4.2933423e-02
 -3.2889646e-01
 -2.5612709e-01
 -2.8298801e-01
 -1.6251838e-02
 -4.6862133e-02
  7.6028399e-02
 -2.5279623e-01
  7.7369398e-01
 -3.9692730e-01
  2.3085698e-01
 -7.1028697e-01
 -3.4517336e-01
 -6.7952698e-01
  8.7584507e-01
  6.1282909e-01
  5.2356350e-01
  4.1891801e-01
  1.0322891e+00
  1.8057188e-01
 -1.2503607e-02
 -4.5477813e-01
 -2.0707078e-02
  4.8044285e-01
  2.4296284e-01
 -5.4055500e-01
 -9.8935723e-02
 -2.9047126e-01
 -4.1458189e-01
 -7.7710263e-02
 -2.5064623e-01
 -2.0410085e-02
  1.6789632e-02
 -7.4518308e-02
 -3.4104899e-01
  4.9007693e-01
  1.6273241e-02
  6.2096335e-02
 -3.7729847e-01
 -2.3598647e-01
  3.8475388e-01
 -2.3447925e-01
  5.0929481e-01
 -2.5699258e-01
  2.2372049e-01
  6.8031800e-01
 -3.7137100e-01
  7.9850882e-02
  4.4255212e-01
  8.1431377e-01
  8.2135236e-01
  1.9169965e-01
 -5.6516153e-01
  5.1407468e-01
  2.2503282e-01
 -2.9355478e-01
  6.0943371e-01
  2.3357902e-02
  6.5931255e-01
 -5.9746784e-01
 -4.2481986e-01
  5.6020623e-01
 -1.5119994e-01
  3.4438998e-01
 -5.7130986e-01
  7.0607379e-02
  8.8013840e-01
  1.1969061e-01
  1.0672356e-01
  6.0051352e-01
  1.0419205e-01
  1.3929537e-01
  2.6489466e-01
  6.8020925e-02
  7.9985373e-02
 -9.1260567e-02
 -2.1205939e-01
  1.2383042e-01
 -2.2503093e-01
 -3.6973974e-01
  1.1854141e+00
 -4.4338387e-01
 -1.9490679e-01
  1.5062022e-01
 -2.9594889e-01
  6.8577790e-01
  5.0815511e-01
  4.1745731e-01
 -1.2425775e-01
  2.0778327e-01
  3.3994108e-01
 -7.8633115e-02
  5.5745527e-02
 -6.5886939e-01
 -2.7364375e-02
  4.9226618e-01
  8.9553702e-01
 -8.8037357e-02
  8.0376530e-01
  5.6552106e-01
  4.8607853e-01
 -2.6794255e-01
  1.5992842e+00
 -1.2689126e+00
 -8.5842896e-01
 -1.5411047e+00
  5.7200152e-01
 -2.4625383e-01
 -8.6990893e-01
  7.4335688e-01
  1.4208905e+00
 -1.5142733e-01
 -6.3523698e-01
 -7.3598802e-01
  2.2841558e-01
  9.9066645e-01
 -9.2297357e-01
  4.2812893e-01
  9.5888317e-01
 -1.8523020e+00
 -2.6371962e-01
 -1.2468146e+00
 -3.6635721e-01
  1.3293501e+00
 -1.2998404e-01
 -6.9878346e-01
 -3.5715660e-01
 -7.7137631e-01
 -2.3083435e-01
  1.2609930e+00
  8.5360438e-01
  4.7770298e-01
 -2.5587863e-01
 -1.2562290e-01
  3.7023604e-01
  2.7247522e-02
  5.2699488e-01
  5.9119743e-01
  1.8241851e-01
 -9.7302713e-02
 -7.2693986e-01
  3.5290974e-01
  3.0803829e-01
  7.8109086e-02
 -4.3382831e-02
  3.5286337e-01
 -2.2200780e-01
 -1.1977765e-01
  2.0946953e-02
  5.6752199e-01
 -1.0300840e-01
  2.7783123e-01
  3.6610860e-01
 -1.9188485e-01
 -1.1943635e-01
 -2.6621068e-01
  9.6777469e-02
  1.8368930e-02
 -2.0458263e-01
 -4.8761952e-01
  3.7473762e-01
 -9.2991322e-02
 -6.5778607e-01
 -1.5585582e-01
  3.3669111e-01
 -1.8707888e-01
 -4.2397493e-01
 -1.1749990e-01
  3.6045942e-02
  1.6418773e-01
 -2.7703717e-01
  1.8809563e-01
  5.5633724e-01
 -2.9125708e-01
  5.4395431e-01
  1.8228577e-01
  8.6921424e-02
 -8.4262335e-01
 -8.4417951e-01
 -3.0112969e-02
  6.8670553e-01
 -9.6728109e-02
  2.0882869e-01
  3.2716048e-01
 -5.7992131e-01
  5.4211426e-01
 -6.6187894e-01
 -1.3832220e-01
 -5.6950849e-01
  7.9527155e-02
 -2.8601539e-01
  3.9790046e-01
 -3.2178979e-02
  7.3739454e-02
 -3.3179766e-01
  5.2621680e-01
  4.1955698e-01
  3.0119032e-01
  4.7341990e-01
  3.0700114e-01
 -7.5559631e-02
  9.6036524e-01
 -4.7628021e-01
  5.7120189e-02
  7.5220086e-02
 -3.4640551e-02
 -5.5939567e-01
 -1.7461821e-01
  5.8735520e-01
 -1.9949554e-01
 -6.8093860e-01
 -4.5499355e-01
  1.3885216e-01
 -6.2689684e-02
 -4.7133422e-01
 -1.7519777e-01
 -2.3246235e-01
  3.4977278e-01
  8.7834662e-01
 -5.1390234e-02
  2.3909453e-01
 -8.5492410e-02
  4.5081738e-01
 -5.2876249e-02
  4.8402820e-02
  7.1205467e-02
  2.8774297e-01
 -8.2883663e-02
 -1.1053139e-01
 -7.2369814e-01
  2.3526087e-02
 -5.1953965e-01
  4.4926935e-01
 -6.5035000e-04
 -1.3394535e-01
 -4.0952268e-01
 -7.6724279e-01
  3.7053995e-02
 -3.8505635e-01
 -2.8729612e-01
  3.5128298e-01
 -1.8879056e-01
  2.9539996e-01
 -1.0467529e-01
  2.4862438e-01
  7.5423771e-01
  2.0121169e-01
  4.0257621e-01
  4.8636726e-01
  1.6410612e-02
  6.8634254e-01
 -7.7308804e-02
 -4.0080184e-01
  2.0178485e-01
  2.3381464e-01
 -3.7156489e-01
 -1.3720919e-01
 -9.3311355e-02
  3.0284199e-01
 -4.1346547e-01
 -2.3161174e-01
 -4.0605214e-01
 -3.7326166e-01
 -1.3178608e-01
  2.3484670e-01
  3.3624884e-01
 -1.1319009e-01
  2.3841819e-01
 -2.6539978e-01
  1.9414569e-01
  9.8925662e-01
  2.6949152e-01
 -1.9237317e-02
  6.0524717e-03
 -2.8984496e-01
  9.5096573e-02
 -2.4514708e-01
 -1.5287983e-01
 -1.7340732e-01
 -1.4131314e-01
 -1.3852450e+00
  1.1564652e+00
  6.9368047e-01
 -5.9129375e-01
 -2.7593002e-01
 -6.6580969e-01
 -2.5466445e-01
  1.0661978e+00
  3.4561232e-01
  1.4812218e+00
  6.6780276e-03
 -7.0607764e-01
  5.8250606e-01
 -7.4242425e-01
  1.7191840e+00
 -5.3193468e-01
  2.5402548e+00
 -9.0634964e-02
 -1.8185049e+00
 -2.0016229e-01
  4.4810548e-01
  2.0926151e+00
  2.1319218e+00
 -6.8180817e-01
  1.1356758e+00
  8.8828927e-01
 -5.7148057e-01
  2.4385095e+00
  4.0850573e+00
  3.2825325e+00
  7.5689131e-01
  6.4288145e-01
 -1.0198848e+00
 -3.7143989e+00
  1.3576152e+00
 -1.2788051e-01
  2.0358915e+00
 -7.5686949e-01
  2.7658026e+00
 -9.1843140e-01
  5.2435678e-01
 -1.1130556e-01
  9.4972533e-01
 -9.8219728e-01
 -6.3165015e-01
 -2.0305369e+00
  3.1699080e+00
  1.4785618e+00
 -4.4768879e-01
 -6.4864790e-01
  6.9107479e-01
  1.7709965e-01
 -7.9520684e-01
  7.4422801e-01
  1.1252616e-01
  8.3140147e-01
  1.3213243e+00
 -1.5178664e-02
  1.3410810e-01
  1.9786842e-02
 -5.5961791e-02
  4.4098135e-02
 -2.4630368e-01
 -1.0751374e-02
  1.6095683e-01
 -3.5908946e-01
 -1.0900363e-01
  5.1025486e-01
 -2.7028404e-02
  4.3252441e-01
  2.1123855e+00
 -5.1896590e-01
 -1.0991980e+00
  6.7542446e-01
  1.4828387e-01
  4.1990852e-01
 -3.6417540e-02
 -5.2662808e-01
 -2.8887337e-01
 -9.6982129e-02
  9.2543513e-03
 -4.6755430e-01
 -9.0150523e-01
  1.1775860e-01
  2.0892477e-01
 -1.3645330e-01
  7.1164072e-03
 -3.9389905e-01
  3.2763383e-01
  5.9624821e-01
  1.8672749e-02
 -8.4601015e-02
 -2.1005397e-01
 -4.0168366e-01
  6.1141100e-02
 -6.5380752e-01
  5.5147529e-01
  1.7089356e-02
 -1.5764765e-01
 -4.9707994e-01
  1.1115149e-01
 -5.4634219e-01
  8.0230318e-02
  2.0844346e-01
  4.0449500e-01
 -3.9797896e-01
  8.4630772e-04
 -4.3160003e-01
  2.9956426e-02
  1.6876748e-01
  7.8007743e-02
 -3.3005485e-01
 -5.7854199e-01
 -2.9217368e-01
 -2.8528446e-01
 -1.2445039e-01
 -1.4225248e-01
 -2.6627848e-01
  1.6486685e-01
 -2.6495339e-02
 -1.3885680e-01
 -5.2456337e-01
  2.0772614e-02
  7.6305717e-02
  2.2720179e-01
  7.0655659e-02
 -3.9747456e-01
 -2.5459254e-02
  1.6116899e-02
 -3.2427028e-02
 -3.5926914e-01
 -2.5251067e-01
  5.1077622e-01
  9.1288760e-02
  1.4778171e+00
 -9.2150760e-01
  5.8309501e-01
 -2.4767861e-01
 -3.5911828e-01
 -3.1807786e-01
 -4.0474829e-01
 -1.7680171e+00
  9.2942291e-01
 -1.4642350e-01
 -1.0068537e+00
  2.6658931e-01
 -1.4349910e+00
 -6.6315097e-01
 -1.2345674e+00
 -2.0113783e+00
 -9.2437518e-01
 -1.7299746e+00
 -6.4509958e-01
 -1.2576578e+00
 -1.6757877e+00
 -1.2885223e-01
 -4.0187243e-01
 -5.3367072e-01
 -3.1171209e-01
  2.1084331e-01
 -1.4687514e+00
 -1.1932872e-01
 -2.7533638e+00
  1.5917552e+00
 -3.4723175e-01
  3.2974085e-01
  2.9532319e-01
 -1.8398638e-01
  2.8461725e-01
  2.9916375e+00
  1.0904693e-01
  9.3677193e-01
 -2.0518856e+00
 -2.9509164e-02
 -8.1679356e-01
  7.2965425e-01
 -2.2338836e-01
 -1.5466683e+00
  8.3783716e-01
  1.9220421e+00
  3.5003077e-02
 -1.0759799e+00
  5.9944737e-01
  1.1291170e+00
  2.3505330e-01
 -2.4329627e+00
 -5.2294172e-03
  1.0356274e+00
  5.4734476e-02
 -6.7531717e-01
 -4.0021634e-01
 -7.8782994e-01
 -9.9149317e-02
  3.6162001e-01
 -1.2270739e+00
  2.1256694e-01
  1.2057037e+00
 -5.9992486e-01
 -7.6696783e-01
  2.3561740e-01
 -9.4742045e-02
 -4.5989633e-01
 -8.5824966e-01
  1.1242778e+00
  3.5189998e-01
 -5.5235833e-01
  5.8024830e-01
 -2.4388680e+00
  1.3639574e+00
  7.3441312e-02
  9.0518677e-01
  1.7870787e-01
 -6.2559074e-01
  1.9245112e+00
  1.5654407e+00
 -2.3823449e-01
  1.4345729e+00
 -2.0013127e-01
  5.7352042e-01
  2.7830470e-01
  1.4170296e-01
 -7.0547932e-01
  6.9702250e-01
 -5.6110936e-01
  1.8559145e+00
 -1.4949164e+00
  4.5324120e-01
  1.0024685e+00
 -9.3022656e-01
  4.7209138e-01
 -6.3172586e-02
  8.2733434e-01
  2.1451354e+00
 -4.5905405e-01
  2.9807401e+00
  4.4234040e-01
  1.2499559e+00
  5.7470506e-01
 -3.5260642e+00
  1.5817989e-01
  5.3581744e-01
 -7.5830126e-01
 -6.3337529e-01
 -6.1531222e-01
 -6.3897359e-01
  1.0202863e+00
  1.1091974e-01
 -4.6260455e-01
  5.7238460e-01
  5.5178308e-01
 -2.2680707e-01
  8.7059569e-01
  1.8001410e+00
  8.6245781e-01
  4.8244888e-01
  8.7863542e-02
  3.2213765e-01
  3.9365962e-02
  3.9164716e-01
 -3.8116962e-02
  6.5128505e-02
 -7.8058228e-02
  6.8454492e-01
  8.7737954e-01
 -4.1467690e-01
  5.0023559e-02
 -1.3726795e-01
  5.1405191e-01
 -7.4278200e-01
  4.5491353e-01
 -1.0820395e-01
 -3.3069432e-01
 -6.4508669e-02
  2.4033165e-01
  7.5384237e-02
 -2.6025146e-01
 -2.5358018e-01
 -1.5467578e-01
 -4.9807966e-01
  4.9222884e-01
  6.6861737e-01
 -2.3319016e-01
  1.4165051e-01
  1.5201771e-01
  1.2825942e-01
 -3.5953835e-01
 -5.6039506e-01
  3.0296358e-01
  5.4330176e-01
 -5.4771447e-01
  2.3084460e-01
 -1.3814974e-01
  5.0579429e-01
 -2.3254198e-01
 -1.0656202e-01
 -7.8897965e-01
 -3.8927591e-01
 -4.0837041e-01
 -5.7345521e-01
 -4.8086298e-01
 -3.1663784e-01
 -6.0450935e-01
 -1.8733205e-01
 -5.8372945e-01
 -1.0969075e+00
 -5.8380213e-02
 -8.1085777e-01
  2.7559709e-02
  6.6174531e-01
 -7.5210277e-03
 -4.6819204e-01
  1.3456941e-01
  1.2542300e-01
  3.5508759e-02
  5.2541322e-01
  6.1049426e-01
  2.6377040e-01
 -2.2815349e-02
 -5.1794030e-02
 -2.2027397e-01
 -1.1895909e-01
 -1.3268775e-01
 -4.6970525e-01
  8.3701521e-02
  8.5448349e-01
 -7.4007398e-01
 -5.1754856e-01
  5.2962160e-01
 -2.3395559e-01
 -3.4662825e-01
  5.8720982e-01
  1.8214469e-01
  5.0730366e-01
 -7.0856977e-01
 -2.6955090e+00
  2.3723228e-01
 -2.2567701e-01
  1.0010896e-01
 -2.6121303e-01
 -1.7682727e-02
 -1.1461095e+00
 -3.5695812e-01
  4.4831553e-01
  1.0359691e-02
 -1.9390726e-01
  1.8607835e-01
 -2.1338172e-01
  1.6257977e-01
 -4.1994062e-01
 -5.5250639e-01
  1.5932924e-01
 -3.3396670e-01
 -3.3648884e-01
 -1.3911395e-01
  4.2303911e-01
  2.1642201e-02
  1.6728945e-02
  1.4234330e-01
  6.4476514e-01
 -5.4892403e-01
 -3.4639072e-01
 -3.5817716e-01
  4.4904414e-01
 -1.0743038e-01
 -1.8293288e-02
 -3.2028034e-02
  7.4699238e-02
  1.6315755e-02
  3.5273246e-03
 -5.2002305e-01
 -2.0996032e+00
  8.7386125e-01
 -2.0780140e-01
 -2.6815984e-01
  1.0773054e-01
  2.1558273e-01
 -2.9733095e-01
 -1.6374227e-01
 -5.9686935e-01
 -6.5497041e-02
 -7.1893471e-01
  4.8171496e-01
  3.4787723e-01
 -2.8585765e-01
 -2.7133361e-01
 -4.5230769e-02
  1.2262502e-01
 -4.0047479e-01
  3.5694200e-01
 -3.5836610e-01
 -3.9882690e-01
 -1.2613233e-02
  1.0355129e-01
 -2.7678943e-01
 -2.3184543e-02
  1.3157415e-01
  2.0096952e-01
  7.1556646e-01
 -1.8202060e-01
  4.4171539e-01
 -4.0304530e-03
  9.9035680e-02
  6.2484372e-01
 -2.2593384e+00
  6.2840497e-01
  1.4071310e+00
  1.0733309e+00
  1.0914221e+00
 -2.5863986e+00
  2.2384315e+00
  6.2543529e-01
  8.0740070e-01
 -7.5094831e-01
  8.6283100e-01
  2.6303759e+00
 -9.8364316e-02
